<?xml version="1.0"?>
<opencv_storage>
<stage7>
  <maxWeakCount>8</maxWeakCount>
  <stageThreshold>-7.1531009674072266e-01</stageThreshold>
  <weakClassifiers>
    <_>
      <internalNodes>
        0 -1 154323 -7.6444977894425392e-03</internalNodes>
      <leafValues>
        5.5932205915451050e-01 -3.9454093575477600e-01</leafValues></_>
    <_>
      <internalNodes>
        0 -1 70097 -5.3173728287220001e-02</internalNodes>
      <leafValues>
        -9.6101146936416626e-01 1.7084936797618866e-01</leafValues></_>
    <_>
      <internalNodes>
        0 -1 69795 -1.1430216953158379e-02</internalNodes>
      <leafValues>
        4.2757067084312439e-01 -3.7056377530097961e-01</leafValues></_>
    <_>
      <internalNodes>
        0 -1 142830 -1.4199803117662668e-03</internalNodes>
      <leafValues>
        6.5408068895339966e-01 -2.7363380789756775e-01</leafValues></_>
    <_>
      <internalNodes>
        0 -1 26807 -5.2495050430297852e-01</internalNodes>
      <leafValues>
        -8.2261031866073608e-01 2.2558683156967163e-01</leafValues></_>
    <_>
      <internalNodes>
        0 -1 134448 1.1784427799284458e-02</internalNodes>
      <leafValues>
        -3.0411180853843689e-01 5.4334586858749390e-01</leafValues></_>
    <_>
      <internalNodes>
        0 -1 116363 5.7885162532329559e-03</internalNodes>
      <leafValues>
        -2.0795227587223053e-01 6.6031229496002197e-01</leafValues></_>
    <_>
      <internalNodes>
        0 -1 128013 -2.9617547988891602e-04</internalNodes>
      <leafValues>
        5.0843250751495361e-01 -2.6474392414093018e-01</leafValues></_></weakClassifiers></stage7>
</opencv_storage>
