<?xml version="1.0"?>
<opencv_storage>
<stage4>
  <maxWeakCount>10</maxWeakCount>
  <stageThreshold>-1.2612859010696411e+00</stageThreshold>
  <weakClassifiers>
    <_>
      <internalNodes>
        0 -1 5346 1.2162209302186966e-01</internalNodes>
      <leafValues>
        -3.4772181510925293e-01 5.2147239446640015e-01</leafValues></_>
    <_>
      <internalNodes>
        0 -1 156233 -1.6895383596420288e-02</internalNodes>
      <leafValues>
        4.1174736618995667e-01 -2.9813149571418762e-01</leafValues></_>
    <_>
      <internalNodes>
        0 -1 103630 -5.2648894488811493e-02</internalNodes>
      <leafValues>
        -5.4438567161560059e-01 2.9887208342552185e-01</leafValues></_>
    <_>
      <internalNodes>
        0 -1 5154 -2.3335579782724380e-02</internalNodes>
      <leafValues>
        6.0334944725036621e-01 -2.7173879742622375e-01</leafValues></_>
    <_>
      <internalNodes>
        0 -1 86778 -5.8869728818535805e-03</internalNodes>
      <leafValues>
        2.2338633239269257e-01 -9.4400012493133545e-01</leafValues></_>
    <_>
      <internalNodes>
        0 -1 69114 -1.0848182439804077e-01</internalNodes>
      <leafValues>
        -2.9113715887069702e-01 5.6569743156433105e-01</leafValues></_>
    <_>
      <internalNodes>
        0 -1 138221 1.1993043124675751e-02</internalNodes>
      <leafValues>
        -3.4829744696617126e-01 3.9668124914169312e-01</leafValues></_>
    <_>
      <internalNodes>
        0 -1 13299 -2.8476203442551196e-04</internalNodes>
      <leafValues>
        -6.4061826467514038e-01 1.9591717422008514e-01</leafValues></_>
    <_>
      <internalNodes>
        0 -1 10675 1.1068239808082581e-02</internalNodes>
      <leafValues>
        -2.1797251701354980e-01 5.5327999591827393e-01</leafValues></_>
    <_>
      <internalNodes>
        0 -1 99272 -7.2867900133132935e-02</internalNodes>
      <leafValues>
        7.0382219552993774e-01 -2.0446226000785828e-01</leafValues></_></weakClassifiers></stage4>
</opencv_storage>
