<?xml version="1.0"?>
<opencv_storage>
<stage10>
  <maxWeakCount>10</maxWeakCount>
  <stageThreshold>-8.2730108499526978e-01</stageThreshold>
  <weakClassifiers>
    <_>
      <internalNodes>
        0 -1 4963 -8.6520683765411377e-01</internalNodes>
      <leafValues>
        -5.0609755516052246e-01 4.2063492536544800e-01</leafValues></_>
    <_>
      <internalNodes>
        0 -1 122801 -4.7344498336315155e-02</internalNodes>
      <leafValues>
        4.5181477069854736e-01 -2.7315479516983032e-01</leafValues></_>
    <_>
      <internalNodes>
        0 -1 136722 5.6405372917652130e-02</internalNodes>
      <leafValues>
        -2.4871206283569336e-01 7.0396274328231812e-01</leafValues></_>
    <_>
      <internalNodes>
        0 -1 12243 9.6814043354243040e-04</internalNodes>
      <leafValues>
        2.8555932641029358e-01 -4.5458579063415527e-01</leafValues></_>
    <_>
      <internalNodes>
        0 -1 154039 -2.0157143473625183e-02</internalNodes>
      <leafValues>
        5.3544151782989502e-01 -2.5245243310928345e-01</leafValues></_>
    <_>
      <internalNodes>
        0 -1 75720 9.2938361922279000e-04</internalNodes>
      <leafValues>
        -1.7429627478122711e-01 6.0624337196350098e-01</leafValues></_>
    <_>
      <internalNodes>
        0 -1 12104 -6.9140784442424774e-02</internalNodes>
      <leafValues>
        5.2320575714111328e-01 -2.3521162569522858e-01</leafValues></_>
    <_>
      <internalNodes>
        0 -1 10019 9.6909666899591684e-04</internalNodes>
      <leafValues>
        2.4851600825786591e-01 -6.1520075798034668e-01</leafValues></_>
    <_>
      <internalNodes>
        0 -1 59 -4.8813998699188232e-02</internalNodes>
      <leafValues>
        -1.7480190098285675e-01 8.7023121118545532e-01</leafValues></_>
    <_>
      <internalNodes>
        0 -1 133117 -2.8581463266164064e-04</internalNodes>
      <leafValues>
        5.8229881525039673e-01 -2.2161933779716492e-01</leafValues></_></weakClassifiers></stage10>
</opencv_storage>
