<?xml version="1.0"?>
<opencv_storage>
<stage0>
  <maxWeakCount>6</maxWeakCount>
  <stageThreshold>-6.2773609161376953e-01</stageThreshold>
  <weakClassifiers>
    <_>
      <internalNodes>
        0 -1 44027 -5.1416301727294922e-01</internalNodes>
      <leafValues>
        -4.7294119000434875e-01 9.0967744588851929e-01</leafValues></_>
    <_>
      <internalNodes>
        0 -1 97362 -6.2947839498519897e-02</internalNodes>
      <leafValues>
        8.3005785942077637e-01 -2.3420548439025879e-01</leafValues></_>
    <_>
      <internalNodes>
        0 -1 161187 3.0287532717920840e-04</internalNodes>
      <leafValues>
        2.9093936085700989e-01 -7.7661079168319702e-01</leafValues></_>
    <_>
      <internalNodes>
        0 -1 161187 -2.1003428264521062e-04</internalNodes>
      <leafValues>
        -7.0540618896484375e-01 3.6184450984001160e-01</leafValues></_>
    <_>
      <internalNodes>
        0 -1 162083 -1.0807637590914965e-03</internalNodes>
      <leafValues>
        -8.9441353082656860e-01 2.2094830870628357e-01</leafValues></_>
    <_>
      <internalNodes>
        0 -1 162327 -2.3190974025055766e-04</internalNodes>
      <leafValues>
        -7.0393747091293335e-01 2.7322858572006226e-01</leafValues></_></weakClassifiers></stage0>
</opencv_storage>
