<?xml version="1.0"?>
<opencv_storage>
<stage23>
  <maxWeakCount>10</maxWeakCount>
  <stageThreshold>-7.7209204435348511e-01</stageThreshold>
  <weakClassifiers>
    <_>
      <internalNodes>
        0 -1 121351 -8.7923202663660049e-03</internalNodes>
      <leafValues>
        -3.8425925374031067e-01 7.1621620655059814e-01</leafValues></_>
    <_>
      <internalNodes>
        0 -1 155232 -6.2570243608206511e-04</internalNodes>
      <leafValues>
        -6.6925388574600220e-01 1.8112270534038544e-01</leafValues></_>
    <_>
      <internalNodes>
        0 -1 113851 -1.5040833503007889e-02</internalNodes>
      <leafValues>
        3.8636481761932373e-01 -2.3040772974491119e-01</leafValues></_>
    <_>
      <internalNodes>
        0 -1 39703 -2.8426438570022583e-02</internalNodes>
      <leafValues>
        6.1646252870559692e-01 -1.3820528984069824e-01</leafValues></_>
    <_>
      <internalNodes>
        0 -1 1329 1.7491776961833239e-03</internalNodes>
      <leafValues>
        2.0984396338462830e-01 -4.4037345051765442e-01</leafValues></_>
    <_>
      <internalNodes>
        0 -1 147203 1.4593847095966339e-02</internalNodes>
      <leafValues>
        -2.3345082998275757e-01 5.0770044326782227e-01</leafValues></_>
    <_>
      <internalNodes>
        0 -1 20374 -3.0255375429987907e-02</internalNodes>
      <leafValues>
        -1.9701513648033142e-01 5.1625061035156250e-01</leafValues></_>
    <_>
      <internalNodes>
        0 -1 58124 1.0062074288725853e-03</internalNodes>
      <leafValues>
        -1.3752229511737823e-01 8.2711666822433472e-01</leafValues></_>
    <_>
      <internalNodes>
        0 -1 162189 -5.6540814694017172e-04</internalNodes>
      <leafValues>
        -6.9152808189392090e-01 1.6577695310115814e-01</leafValues></_>
    <_>
      <internalNodes>
        0 -1 142616 -4.0429547429084778e-02</internalNodes>
      <leafValues>
        2.7196070551872253e-01 -3.2239666581153870e-01</leafValues></_></weakClassifiers></stage23>
</opencv_storage>
