<?xml version="1.0"?>
<opencv_storage>
<cascade>
  <stageType>BOOST</stageType>
  <featureType>HAAR</featureType>
  <height>24</height>
  <width>24</width>
  <stageParams>
    <boostType>GAB</boostType>
    <minHitRate>9.9500000476837158e-01</minHitRate>
    <maxFalseAlarm>5.0000000000000000e-01</maxFalseAlarm>
    <weightTrimRate>9.4999999999999996e-01</weightTrimRate>
    <maxDepth>1</maxDepth>
    <maxWeakCount>100</maxWeakCount></stageParams>
  <featureParams>
    <maxCatCount>0</maxCatCount>
    <featSize>1</featSize>
    <mode>BASIC</mode></featureParams>
  <stageNum>30</stageNum>
  <stages>
    <!-- stage 0 -->
    <_>
      <maxWeakCount>5</maxWeakCount>
      <stageThreshold>-8.5967165231704712e-01</stageThreshold>
      <weakClassifiers>
        <_>
          <internalNodes>
            0 -1 77 -6.4772331714630127e-01</internalNodes>
          <leafValues>
            -7.6899695396423340e-01 8.7234044075012207e-01</leafValues></_>
        <_>
          <internalNodes>
            0 -1 107 -3.1313288956880569e-02</internalNodes>
          <leafValues>
            -3.9724904298782349e-01 8.0378395318984985e-01</leafValues></_>
        <_>
          <internalNodes>
            0 -1 218 4.2964331805706024e-04</internalNodes>
          <leafValues>
            3.1981071829795837e-01 -9.1627395153045654e-01</leafValues></_>
        <_>
          <internalNodes>
            0 -1 218 -1.7848756397143006e-04</internalNodes>
          <leafValues>
            -7.0885628461837769e-01 3.5206457972526550e-01</leafValues></_>
        <_>
          <internalNodes>
            0 -1 213 7.3812037706375122e-02</internalNodes>
          <leafValues>
            -3.6530095338821411e-01 7.9672586917877197e-01</leafValues></_></weakClassifiers></_>
    <!-- stage 1 -->
    <_>
      <maxWeakCount>7</maxWeakCount>
      <stageThreshold>-1.0180586576461792e+00</stageThreshold>
      <weakClassifiers>
        <_>
          <internalNodes>
            0 -1 136 -7.1720138192176819e-02</internalNodes>
          <leafValues>
            -6.9325155019760132e-01 6.6666668653488159e-01</leafValues></_>
        <_>
          <internalNodes>
            0 -1 79 -6.3624538481235504e-02</internalNodes>
          <leafValues>
            9.4877034425735474e-01 -2.7333316206932068e-01</leafValues></_>
        <_>
          <internalNodes>
            0 -1 215 -5.3295839577913284e-02</internalNodes>
          <leafValues>
            7.9789823293685913e-01 -2.9103404283523560e-01</leafValues></_>
        <_>
          <internalNodes>
            0 -1 64 -7.8137159347534180e-02</internalNodes>
          <leafValues>
            -4.9463257193565369e-01 4.1019797325134277e-01</leafValues></_>
        <_>
          <internalNodes>
            0 -1 247 5.6677445769309998e-02</internalNodes>
          <leafValues>
            -1.9783365726470947e-01 8.0829977989196777e-01</leafValues></_>
        <_>
          <internalNodes>
            0 -1 130 5.3671214729547501e-02</internalNodes>
          <leafValues>
            -2.2651246190071106e-01 8.1386142969131470e-01</leafValues></_>
        <_>
          <internalNodes>
            0 -1 0 -3.7615321343764663e-04</internalNodes>
          <leafValues>
            -8.1778585910797119e-01 2.5370818376541138e-01</leafValues></_></weakClassifiers></_>
    <!-- stage 2 -->
    <_>
      <maxWeakCount>5</maxWeakCount>
      <stageThreshold>-8.5499709844589233e-01</stageThreshold>
      <weakClassifiers>
        <_>
          <internalNodes>
            0 -1 88 -1.8668049573898315e-01</internalNodes>
          <leafValues>
            -6.2691134214401245e-01 5.2447551488876343e-01</leafValues></_>
        <_>
          <internalNodes>
            0 -1 18 -3.4438308328390121e-02</internalNodes>
          <leafValues>
            6.7319405078887939e-01 -3.6033880710601807e-01</leafValues></_>
        <_>
          <internalNodes>
            0 -1 44 3.2385114580392838e-02</internalNodes>
          <leafValues>
            -3.1111344695091248e-01 8.3689570426940918e-01</leafValues></_>
        <_>
          <internalNodes>
            0 -1 43 -3.6547169089317322e-02</internalNodes>
          <leafValues>
            7.1760034561157227e-01 -1.8364393711090088e-01</leafValues></_>
        <_>
          <internalNodes>
            0 -1 249 -1.6211804002523422e-02</internalNodes>
          <leafValues>
            7.0921701192855835e-01 -2.7423387765884399e-01</leafValues></_></weakClassifiers></_>
    <!-- stage 3 -->
    <_>
      <maxWeakCount>7</maxWeakCount>
      <stageThreshold>-7.4975335597991943e-01</stageThreshold>
      <weakClassifiers>
        <_>
          <internalNodes>
            0 -1 73 9.3778111040592194e-03</internalNodes>
          <leafValues>
            -4.6055978536605835e-01 6.6233766078948975e-01</leafValues></_>
        <_>
          <internalNodes>
            0 -1 236 -2.0666955038905144e-02</internalNodes>
          <leafValues>
            -6.9321966171264648e-01 3.0674675107002258e-01</leafValues></_>
        <_>
          <internalNodes>
            0 -1 137 -7.3980269953608513e-03</internalNodes>
          <leafValues>
            6.6340732574462891e-01 -2.9341030120849609e-01</leafValues></_>
        <_>
          <internalNodes>
            0 -1 248 1.4991017989814281e-02</internalNodes>
          <leafValues>
            -3.8539180159568787e-01 5.9883505105972290e-01</leafValues></_>
        <_>
          <internalNodes>
            0 -1 89 9.3983616679906845e-03</internalNodes>
          <leafValues>
            -1.6741296648979187e-01 8.0581706762313843e-01</leafValues></_>
        <_>
          <internalNodes>
            0 -1 143 -5.4683566093444824e-02</internalNodes>
          <leafValues>
            7.6154094934463501e-01 -2.1737998723983765e-01</leafValues></_>
        <_>
          <internalNodes>
            0 -1 250 -1.2999273836612701e-02</internalNodes>
          <leafValues>
            5.1080358028411865e-01 -3.6864718794822693e-01</leafValues></_></weakClassifiers></_>
    <!-- stage 4 -->
    <_>
      <maxWeakCount>10</maxWeakCount>
      <stageThreshold>-1.3746312856674194e+00</stageThreshold>
      <weakClassifiers>
        <_>
          <internalNodes>
            0 -1 153 -3.0420705676078796e-02</internalNodes>
          <leafValues>
            -7.2687226533889771e-01 1.4403292536735535e-01</leafValues></_>
        <_>
          <internalNodes>
            0 -1 113 5.0151892937719822e-03</internalNodes>
          <leafValues>
            -3.5637730360031128e-01 5.8021670579910278e-01</leafValues></_>
        <_>
          <internalNodes>
            0 -1 151 -7.3092146776616573e-03</internalNodes>
          <leafValues>
            9.0749263763427734e-01 -2.4192772805690765e-01</leafValues></_>
        <_>
          <internalNodes>
            0 -1 144 1.3715127483010292e-02</internalNodes>
          <leafValues>
            -1.9043058156967163e-01 6.5030020475387573e-01</leafValues></_>
        <_>
          <internalNodes>
            0 -1 62 -5.2501400932669640e-03</internalNodes>
          <leafValues>
            6.2541645765304565e-01 -2.5497779250144958e-01</leafValues></_>
        <_>
          <internalNodes>
            0 -1 13 -2.1677993237972260e-02</internalNodes>
          <leafValues>
            -8.7937951087951660e-01 1.8403966724872589e-01</leafValues></_>
        <_>
          <internalNodes>
            0 -1 119 2.2726353257894516e-02</internalNodes>
          <leafValues>
            -1.8519005179405212e-01 8.5188955068588257e-01</leafValues></_>
        <_>
          <internalNodes>
            0 -1 118 -3.6750376224517822e-02</internalNodes>
          <leafValues>
            9.3379276990890503e-01 -1.4160180091857910e-01</leafValues></_>
        <_>
          <internalNodes>
            0 -1 160 -9.0252942754887044e-05</internalNodes>
          <leafValues>
            -4.8859164118766785e-01 3.3782562613487244e-01</leafValues></_>
        <_>
          <internalNodes>
            0 -1 127 -1.7687150975689292e-03</internalNodes>
          <leafValues>
            -6.9743168354034424e-01 2.0088092982769012e-01</leafValues></_></weakClassifiers></_>
    <!-- stage 5 -->
    <_>
      <maxWeakCount>6</maxWeakCount>
      <stageThreshold>-8.9427012205123901e-01</stageThreshold>
      <weakClassifiers>
        <_>
          <internalNodes>
            0 -1 84 5.5495798587799072e-03</internalNodes>
          <leafValues>
            -5.2542370557785034e-01 4.8275861144065857e-01</leafValues></_>
        <_>
          <internalNodes>
            0 -1 41 2.1100534498691559e-01</internalNodes>
          <leafValues>
            2.1082413196563721e-01 -8.3580207824707031e-01</leafValues></_>
        <_>
          <internalNodes>
            0 -1 192 -6.8002291023731232e-02</internalNodes>
          <leafValues>
            -5.0156307220458984e-01 3.5808485746383667e-01</leafValues></_>
        <_>
          <internalNodes>
            0 -1 152 -2.2041588090360165e-03</internalNodes>
          <leafValues>
            6.7026573419570923e-01 -2.4296025931835175e-01</leafValues></_>
        <_>
          <internalNodes>
            0 -1 179 -5.1718568429350853e-03</internalNodes>
          <leafValues>
            6.5622508525848389e-01 -3.0344054102897644e-01</leafValues></_>
        <_>
          <internalNodes>
            0 -1 120 -1.8234823364764452e-03</internalNodes>
          <leafValues>
            6.9013631343841553e-01 -2.5795432925224304e-01</leafValues></_></weakClassifiers></_>
    <!-- stage 6 -->
    <_>
      <maxWeakCount>7</maxWeakCount>
      <stageThreshold>-9.7809815406799316e-01</stageThreshold>
      <weakClassifiers>
        <_>
          <internalNodes>
            0 -1 255 1.1809866875410080e-02</internalNodes>
          <leafValues>
            -5.0000000000000000e-01 6.1702126264572144e-01</leafValues></_>
        <_>
          <internalNodes>
            0 -1 132 -1.9265266135334969e-02</internalNodes>
          <leafValues>
            -8.6365133523941040e-01 2.1766220033168793e-01</leafValues></_>
        <_>
          <internalNodes>
            0 -1 27 -6.2021622434258461e-03</internalNodes>
          <leafValues>
            6.7275935411453247e-01 -3.4131234884262085e-01</leafValues></_>
        <_>
          <internalNodes>
            0 -1 23 2.0357765257358551e-02</internalNodes>
          <leafValues>
            -2.6292049884796143e-01 8.1128960847854614e-01</leafValues></_>
        <_>
          <internalNodes>
            0 -1 3 -6.6556490957736969e-02</internalNodes>
          <leafValues>
            7.5673383474349976e-01 -3.6619874835014343e-01</leafValues></_>
        <_>
          <internalNodes>
            0 -1 165 -1.0997426215908490e-05</internalNodes>
          <leafValues>
            5.5482470989227295e-01 -3.8069781661033630e-01</leafValues></_>
        <_>
          <internalNodes>
            0 -1 19 1.4558963477611542e-01</internalNodes>
          <leafValues>
            -2.1291162073612213e-01 9.3996340036392212e-01</leafValues></_></weakClassifiers></_>
    <!-- stage 7 -->
    <_>
      <maxWeakCount>9</maxWeakCount>
      <stageThreshold>-7.2872519493103027e-01</stageThreshold>
      <weakClassifiers>
        <_>
          <internalNodes>
            0 -1 157 -1.4891410246491432e-02</internalNodes>
          <leafValues>
            -6.6112959384918213e-01 4.0828403830528259e-01</leafValues></_>
        <_>
          <internalNodes>
            0 -1 214 4.5339215546846390e-02</internalNodes>
          <leafValues>
            -3.8007518649101257e-01 6.7245364189147949e-01</leafValues></_>
        <_>
          <internalNodes>
            0 -1 194 -4.2068421840667725e-02</internalNodes>
          <leafValues>
            6.2231099605560303e-01 -4.1182202100753784e-01</leafValues></_>
        <_>
          <internalNodes>
            0 -1 206 -2.6827496290206909e-01</internalNodes>
          <leafValues>
            -9.0451514720916748e-01 3.5659494996070862e-01</leafValues></_>
        <_>
          <internalNodes>
            0 -1 274 -1.2248406186699867e-02</internalNodes>
          <leafValues>
            -7.8508400917053223e-01 2.9070949554443359e-01</leafValues></_>
        <_>
          <internalNodes>
            0 -1 25 -2.9596474021673203e-02</internalNodes>
          <leafValues>
            6.6735720634460449e-01 -3.9818426966667175e-01</leafValues></_>
        <_>
          <internalNodes>
            0 -1 105 -4.2429869063198566e-03</internalNodes>
          <leafValues>
            -3.0275541543960571e-01 6.2857621908187866e-01</leafValues></_>
        <_>
          <internalNodes>
            0 -1 10 -3.2863282831385732e-04</internalNodes>
          <leafValues>
            -7.4806833267211914e-01 2.6453357934951782e-01</leafValues></_>
        <_>
          <internalNodes>
            0 -1 52 1.0543316602706909e-02</internalNodes>
          <leafValues>
            -2.9824897646903992e-01 7.4038028717041016e-01</leafValues></_></weakClassifiers></_>
    <!-- stage 8 -->
    <_>
      <maxWeakCount>9</maxWeakCount>
      <stageThreshold>-7.8467351198196411e-01</stageThreshold>
      <weakClassifiers>
        <_>
          <internalNodes>
            0 -1 154 -7.6782301068305969e-02</internalNodes>
          <leafValues>
            -6.0655736923217773e-01 3.3333334326744080e-01</leafValues></_>
        <_>
          <internalNodes>
            0 -1 220 -1.7913999035954475e-03</internalNodes>
          <leafValues>
            -7.4502837657928467e-01 1.2443996220827103e-01</leafValues></_>
        <_>
          <internalNodes>
            0 -1 146 3.9058127440512180e-03</internalNodes>
          <leafValues>
            1.6323643922805786e-01 -6.7515802383422852e-01</leafValues></_>
        <_>
          <internalNodes>
            0 -1 278 -2.1526380442082882e-03</internalNodes>
          <leafValues>
            -6.0809171199798584e-01 1.8176545202732086e-01</leafValues></_>
        <_>
          <internalNodes>
            0 -1 280 2.6885690749622881e-04</internalNodes>
          <leafValues>
            2.4801465868949890e-01 -6.0627049207687378e-01</leafValues></_>
        <_>
          <internalNodes>
            0 -1 116 -1.6861125826835632e-02</internalNodes>
          <leafValues>
            7.0056504011154175e-01 -1.9762621819972992e-01</leafValues></_>
        <_>
          <internalNodes>
            0 -1 217 2.3132638307288289e-04</internalNodes>
          <leafValues>
            2.0547145605087280e-01 -6.0645252466201782e-01</leafValues></_>
        <_>
          <internalNodes>
            0 -1 268 4.5320806093513966e-03</internalNodes>
          <leafValues>
            1.5424513816833496e-01 -7.4851763248443604e-01</leafValues></_>
        <_>
          <internalNodes>
            0 -1 279 -1.0938415303826332e-02</internalNodes>
          <leafValues>
            -2.0337790250778198e-01 6.7833453416824341e-01</leafValues></_></weakClassifiers></_>
    <!-- stage 9 -->
    <_>
      <maxWeakCount>7</maxWeakCount>
      <stageThreshold>-9.3139332532882690e-01</stageThreshold>
      <weakClassifiers>
        <_>
          <internalNodes>
            0 -1 26 -4.1926753520965576e-01</internalNodes>
          <leafValues>
            7.5257730484008789e-01 -5.4423594474792480e-01</leafValues></_>
        <_>
          <internalNodes>
            0 -1 208 -7.3057552799582481e-04</internalNodes>
          <leafValues>
            -9.4194185733795166e-01 1.7532883584499359e-01</leafValues></_>
        <_>
          <internalNodes>
            0 -1 80 -5.9190683066844940e-02</internalNodes>
          <leafValues>
            7.4584883451461792e-01 -2.8825473785400391e-01</leafValues></_>
        <_>
          <internalNodes>
            0 -1 131 7.1504764258861542e-02</internalNodes>
          <leafValues>
            -1.7528656125068665e-01 9.0618872642517090e-01</leafValues></_>
        <_>
          <internalNodes>
            0 -1 140 7.2906026616692543e-04</internalNodes>
          <leafValues>
            3.4607052803039551e-01 -6.9594907760620117e-01</leafValues></_>
        <_>
          <internalNodes>
            0 -1 185 3.2150855986401439e-04</internalNodes>
          <leafValues>
            2.8196889162063599e-01 -6.1502015590667725e-01</leafValues></_>
        <_>
          <internalNodes>
            0 -1 148 -6.8620278034359217e-04</internalNodes>
          <leafValues>
            -6.9746309518814087e-01 3.1503519415855408e-01</leafValues></_></weakClassifiers></_>
    <!-- stage 10 -->
    <_>
      <maxWeakCount>6</maxWeakCount>
      <stageThreshold>-7.8217160701751709e-01</stageThreshold>
      <weakClassifiers>
        <_>
          <internalNodes>
            0 -1 4 -8.6665391921997070e-01</internalNodes>
          <leafValues>
            6.1403506994247437e-01 -5.6179773807525635e-01</leafValues></_>
        <_>
          <internalNodes>
            0 -1 175 -3.9421238005161285e-02</internalNodes>
          <leafValues>
            6.6704553365707397e-01 -3.2556802034378052e-01</leafValues></_>
        <_>
          <internalNodes>
            0 -1 59 -1.7272558808326721e-01</internalNodes>
          <leafValues>
            7.9950034618377686e-01 -2.6759907603263855e-01</leafValues></_>
        <_>
          <internalNodes>
            0 -1 9 3.0401468393392861e-04</internalNodes>
          <leafValues>
            3.0373659729957581e-01 -6.9376546144485474e-01</leafValues></_>
        <_>
          <internalNodes>
            0 -1 147 -5.3967699408531189e-02</internalNodes>
          <leafValues>
            7.3596966266632080e-01 -2.3597003519535065e-01</leafValues></_>
        <_>
          <internalNodes>
            0 -1 161 3.3817830262705684e-04</internalNodes>
          <leafValues>
            3.0991515517234802e-01 -6.4540410041809082e-01</leafValues></_></weakClassifiers></_>
    <!-- stage 11 -->
    <_>
      <maxWeakCount>9</maxWeakCount>
      <stageThreshold>-1.3143187761306763e+00</stageThreshold>
      <weakClassifiers>
        <_>
          <internalNodes>
            0 -1 104 -2.1551905572414398e-01</internalNodes>
          <leafValues>
            6.9047617912292480e-01 -4.8704662919044495e-01</leafValues></_>
        <_>
          <internalNodes>
            0 -1 176 4.7179849934764206e-04</internalNodes>
          <leafValues>
            2.5738015770912170e-01 -5.7711559534072876e-01</leafValues></_>
        <_>
          <internalNodes>
            0 -1 227 -9.2815409880131483e-04</internalNodes>
          <leafValues>
            -6.4988434314727783e-01 2.0957362651824951e-01</leafValues></_>
        <_>
          <internalNodes>
            0 -1 225 -3.8365192711353302e-02</internalNodes>
          <leafValues>
            6.9934874773025513e-01 -1.9922582805156708e-01</leafValues></_>
        <_>
          <internalNodes>
            0 -1 49 -1.4704495668411255e-02</internalNodes>
          <leafValues>
            5.5605471134185791e-01 -2.9710763692855835e-01</leafValues></_>
        <_>
          <internalNodes>
            0 -1 38 2.9449069872498512e-02</internalNodes>
          <leafValues>
            -2.6913145184516907e-01 6.8044042587280273e-01</leafValues></_>
        <_>
          <internalNodes>
            0 -1 244 -4.8367417184635997e-04</internalNodes>
          <leafValues>
            -6.0345828533172607e-01 3.2964003086090088e-01</leafValues></_>
        <_>
          <internalNodes>
            0 -1 138 -8.0110982060432434e-02</internalNodes>
          <leafValues>
            6.4600569009780884e-01 -3.2450854778289795e-01</leafValues></_>
        <_>
          <internalNodes>
            0 -1 183 1.3185411808080971e-04</internalNodes>
          <leafValues>
            3.0060327053070068e-01 -5.3282433748245239e-01</leafValues></_></weakClassifiers></_>
    <!-- stage 12 -->
    <_>
      <maxWeakCount>7</maxWeakCount>
      <stageThreshold>-7.3726469278335571e-01</stageThreshold>
      <weakClassifiers>
        <_>
          <internalNodes>
            0 -1 233 5.6329835206270218e-02</internalNodes>
          <leafValues>
            -4.8924732208251953e-01 5.3061223030090332e-01</leafValues></_>
        <_>
          <internalNodes>
            0 -1 195 -8.3649024367332458e-02</internalNodes>
          <leafValues>
            7.5303035974502563e-01 -2.7414140105247498e-01</leafValues></_>
        <_>
          <internalNodes>
            0 -1 201 -9.3178786337375641e-03</internalNodes>
          <leafValues>
            5.1969975233078003e-01 -2.6531186699867249e-01</leafValues></_>
        <_>
          <internalNodes>
            0 -1 12 -8.5307247936725616e-03</internalNodes>
          <leafValues>
            2.7739253640174866e-01 -5.9340268373489380e-01</leafValues></_>
        <_>
          <internalNodes>
            0 -1 198 5.0144597887992859e-02</internalNodes>
          <leafValues>
            -2.7387845516204834e-01 6.2065786123275757e-01</leafValues></_>
        <_>
          <internalNodes>
            0 -1 142 1.4662483707070351e-02</internalNodes>
          <leafValues>
            -2.0802544057369232e-01 6.1842596530914307e-01</leafValues></_>
        <_>
          <internalNodes>
            0 -1 99 -6.6563032567501068e-02</internalNodes>
          <leafValues>
            7.6181346178054810e-01 -2.4472050368785858e-01</leafValues></_></weakClassifiers></_>
    <!-- stage 13 -->
    <_>
      <maxWeakCount>7</maxWeakCount>
      <stageThreshold>-8.1704109907150269e-01</stageThreshold>
      <weakClassifiers>
        <_>
          <internalNodes>
            0 -1 6 -2.7701479196548462e-01</internalNodes>
          <leafValues>
            4.8837208747863770e-01 -4.4791665673255920e-01</leafValues></_>
        <_>
          <internalNodes>
            0 -1 222 1.4435749035328627e-03</internalNodes>
          <leafValues>
            2.3918132483959198e-01 -6.1950725317001343e-01</leafValues></_>
        <_>
          <internalNodes>
            0 -1 123 4.2784385383129120e-02</internalNodes>
          <leafValues>
            -2.1576313674449921e-01 7.2311782836914063e-01</leafValues></_>
        <_>
          <internalNodes>
            0 -1 20 1.4841532707214355e-01</internalNodes>
          <leafValues>
            -2.0951198041439056e-01 7.0951855182647705e-01</leafValues></_>
        <_>
          <internalNodes>
            0 -1 96 1.9101004581898451e-03</internalNodes>
          <leafValues>
            2.6384109258651733e-01 -5.7376223802566528e-01</leafValues></_>
        <_>
          <internalNodes>
            0 -1 275 -2.4750616285018623e-04</internalNodes>
          <leafValues>
            -7.3180192708969116e-01 1.6245371103286743e-01</leafValues></_>
        <_>
          <internalNodes>
            0 -1 197 2.7772382600232959e-04</internalNodes>
          <leafValues>
            2.8493016958236694e-01 -4.4467502832412720e-01</leafValues></_></weakClassifiers></_>
    <!-- stage 14 -->
    <_>
      <maxWeakCount>11</maxWeakCount>
      <stageThreshold>-8.7658393383026123e-01</stageThreshold>
      <weakClassifiers>
        <_>
          <internalNodes>
            0 -1 5 -9.3913149833679199e-01</internalNodes>
          <leafValues>
            2.3943662643432617e-01 -5.0000000000000000e-01</leafValues></_>
        <_>
          <internalNodes>
            0 -1 34 -2.3023990797810256e-04</internalNodes>
          <leafValues>
            -7.0429956912994385e-01 1.4085946977138519e-01</leafValues></_>
        <_>
          <internalNodes>
            0 -1 164 2.3265188792720437e-04</internalNodes>
          <leafValues>
            2.2783258557319641e-01 -4.4493675231933594e-01</leafValues></_>
        <_>
          <internalNodes>
            0 -1 35 -1.5219522174447775e-04</internalNodes>
          <leafValues>
            -5.2812695503234863e-01 2.0725166797637939e-01</leafValues></_>
        <_>
          <internalNodes>
            0 -1 202 -4.5064031146466732e-03</internalNodes>
          <leafValues>
            4.6254354715347290e-01 -2.5016129016876221e-01</leafValues></_>
        <_>
          <internalNodes>
            0 -1 172 1.6602713731117547e-04</internalNodes>
          <leafValues>
            1.9710692763328552e-01 -6.2745982408523560e-01</leafValues></_>
        <_>
          <internalNodes>
            0 -1 177 2.8862664476037025e-03</internalNodes>
          <leafValues>
            2.0937830209732056e-01 -5.7877677679061890e-01</leafValues></_>
        <_>
          <internalNodes>
            0 -1 149 -2.2734493541065603e-04</internalNodes>
          <leafValues>
            -6.5570867061614990e-01 1.8021494150161743e-01</leafValues></_>
        <_>
          <internalNodes>
            0 -1 57 1.5411702916026115e-02</internalNodes>
          <leafValues>
            -2.4324199557304382e-01 5.5016577243804932e-01</leafValues></_>
        <_>
          <internalNodes>
            0 -1 16 -6.7133650183677673e-02</internalNodes>
          <leafValues>
            5.1407784223556519e-01 -3.5041794180870056e-01</leafValues></_>
        <_>
          <internalNodes>
            0 -1 182 -5.7108249515295029e-02</internalNodes>
          <leafValues>
            2.6622402667999268e-01 -5.8354467153549194e-01</leafValues></_></weakClassifiers></_>
    <!-- stage 15 -->
    <_>
      <maxWeakCount>11</maxWeakCount>
      <stageThreshold>-1.3143544197082520e+00</stageThreshold>
      <weakClassifiers>
        <_>
          <internalNodes>
            0 -1 170 -7.2564864531159401e-03</internalNodes>
          <leafValues>
            5.4098361730575562e-01 -3.9853301644325256e-01</leafValues></_>
        <_>
          <internalNodes>
            0 -1 117 -3.8228869438171387e-02</internalNodes>
          <leafValues>
            -4.4824242591857910e-01 1.9232550263404846e-01</leafValues></_>
        <_>
          <internalNodes>
            0 -1 209 4.6912995167076588e-03</internalNodes>
          <leafValues>
            -1.6505564749240875e-01 6.1424231529235840e-01</leafValues></_>
        <_>
          <internalNodes>
            0 -1 70 -3.3903205767273903e-03</internalNodes>
          <leafValues>
            5.9258347749710083e-01 -1.7403924465179443e-01</leafValues></_>
        <_>
          <internalNodes>
            0 -1 267 4.6020933950785547e-05</internalNodes>
          <leafValues>
            2.9777374863624573e-01 -4.1009548306465149e-01</leafValues></_>
        <_>
          <internalNodes>
            0 -1 56 -6.3031213358044624e-04</internalNodes>
          <leafValues>
            -5.2902108430862427e-01 2.1828609704971313e-01</leafValues></_>
        <_>
          <internalNodes>
            0 -1 112 1.3318427954800427e-04</internalNodes>
          <leafValues>
            2.7823212742805481e-01 -4.0060406923294067e-01</leafValues></_>
        <_>
          <internalNodes>
            0 -1 35 1.5743992116767913e-04</internalNodes>
          <leafValues>
            2.1855980157852173e-01 -5.0985759496688843e-01</leafValues></_>
        <_>
          <internalNodes>
            0 -1 103 3.9015252143144608e-02</internalNodes>
          <leafValues>
            -1.4583668112754822e-01 7.1404999494552612e-01</leafValues></_>
        <_>
          <internalNodes>
            0 -1 17 -2.0363550633192062e-02</internalNodes>
          <leafValues>
            5.4704385995864868e-01 -2.8354483842849731e-01</leafValues></_>
        <_>
          <internalNodes>
            0 -1 90 5.1540713757276535e-03</internalNodes>
          <leafValues>
            -2.1518439054489136e-01 5.3680539131164551e-01</leafValues></_></weakClassifiers></_>
    <!-- stage 16 -->
    <_>
      <maxWeakCount>12</maxWeakCount>
      <stageThreshold>-1.2762945890426636e+00</stageThreshold>
      <weakClassifiers>
        <_>
          <internalNodes>
            0 -1 113 7.5353807769715786e-03</internalNodes>
          <leafValues>
            -4.7851002216339111e-01 3.0578511953353882e-01</leafValues></_>
        <_>
          <internalNodes>
            0 -1 97 6.6327967215329409e-04</internalNodes>
          <leafValues>
            1.6539731621742249e-01 -6.2099832296371460e-01</leafValues></_>
        <_>
          <internalNodes>
            0 -1 126 -2.1489695645868778e-03</internalNodes>
          <leafValues>
            4.1923791170120239e-01 -2.6685005426406860e-01</leafValues></_>
        <_>
          <internalNodes>
            0 -1 72 -1.1536580324172974e-01</internalNodes>
          <leafValues>
            3.2825323939323425e-01 -3.5239776968955994e-01</leafValues></_>
        <_>
          <internalNodes>
            0 -1 95 1.0325300972908735e-03</internalNodes>
          <leafValues>
            1.2746874988079071e-01 -7.5664931535720825e-01</leafValues></_>
        <_>
          <internalNodes>
            0 -1 166 1.4805770479142666e-04</internalNodes>
          <leafValues>
            1.9603981077671051e-01 -6.4346849918365479e-01</leafValues></_>
        <_>
          <internalNodes>
            0 -1 106 -2.8403075411915779e-03</internalNodes>
          <leafValues>
            5.9203690290451050e-01 -2.1249438822269440e-01</leafValues></_>
        <_>
          <internalNodes>
            0 -1 263 1.6163973486982286e-04</internalNodes>
          <leafValues>
            2.1747700870037079e-01 -5.6791567802429199e-01</leafValues></_>
        <_>
          <internalNodes>
            0 -1 188 -3.7736617960035801e-03</internalNodes>
          <leafValues>
            7.3470699787139893e-01 -1.9628463685512543e-01</leafValues></_>
        <_>
          <internalNodes>
            0 -1 210 1.2569807004183531e-03</internalNodes>
          <leafValues>
            -1.3364438712596893e-01 7.1579855680465698e-01</leafValues></_>
        <_>
          <internalNodes>
            0 -1 108 2.7781594544649124e-03</internalNodes>
          <leafValues>
            -2.0833566784858704e-01 6.0709786415100098e-01</leafValues></_>
        <_>
          <internalNodes>
            0 -1 159 2.1466140169650316e-03</internalNodes>
          <leafValues>
            -1.5329906344413757e-01 7.5390714406967163e-01</leafValues></_></weakClassifiers></_>
    <!-- stage 17 -->
    <_>
      <maxWeakCount>9</maxWeakCount>
      <stageThreshold>-8.7539070844650269e-01</stageThreshold>
      <weakClassifiers>
        <_>
          <internalNodes>
            0 -1 151 9.2744762077927589e-03</internalNodes>
          <leafValues>
            -4.1176471114158630e-01 6.1290323734283447e-01</leafValues></_>
        <_>
          <internalNodes>
            0 -1 100 -1.0519789159297943e-01</internalNodes>
          <leafValues>
            -6.0529875755310059e-01 2.1279671788215637e-01</leafValues></_>
        <_>
          <internalNodes>
            0 -1 133 1.2223263038322330e-03</internalNodes>
          <leafValues>
            -2.3948319256305695e-01 4.7990357875823975e-01</leafValues></_>
        <_>
          <internalNodes>
            0 -1 256 3.8228114135563374e-05</internalNodes>
          <leafValues>
            -2.8266188502311707e-01 4.0739879012107849e-01</leafValues></_>
        <_>
          <internalNodes>
            0 -1 265 -3.7779044359922409e-02</internalNodes>
          <leafValues>
            -7.2347295284271240e-01 1.8662889301776886e-01</leafValues></_>
        <_>
          <internalNodes>
            0 -1 128 1.2917373329401016e-02</internalNodes>
          <leafValues>
            -1.5028364956378937e-01 1.</leafValues></_>
        <_>
          <internalNodes>
            0 -1 2 -3.1639516237191856e-05</internalNodes>
          <leafValues>
            3.4630188345909119e-01 -3.0925497412681580e-01</leafValues></_>
        <_>
          <internalNodes>
            0 -1 251 -7.0588323287665844e-03</internalNodes>
          <leafValues>
            6.0107630491256714e-01 -1.7952683568000793e-01</leafValues></_>
        <_>
          <internalNodes>
            0 -1 193 2.4044264107942581e-02</internalNodes>
          <leafValues>
            -1.3735674321651459e-01 7.6883476972579956e-01</leafValues></_></weakClassifiers></_>
    <!-- stage 18 -->
    <_>
      <maxWeakCount>13</maxWeakCount>
      <stageThreshold>-1.1813352108001709e+00</stageThreshold>
      <weakClassifiers>
        <_>
          <internalNodes>
            0 -1 78 5.5993571877479553e-02</internalNodes>
          <leafValues>
            -4.0752351284027100e-02 -7.7483445405960083e-01</leafValues></_>
        <_>
          <internalNodes>
            0 -1 54 3.2930690795183182e-02</internalNodes>
          <leafValues>
            6.9277994334697723e-02 -8.5653352737426758e-01</leafValues></_>
        <_>
          <internalNodes>
            0 -1 150 -5.0367778167128563e-03</internalNodes>
          <leafValues>
            8.5458618402481079e-01 -1.3371910154819489e-01</leafValues></_>
        <_>
          <internalNodes>
            0 -1 168 3.5154623910784721e-03</internalNodes>
          <leafValues>
            -2.7639377117156982e-01 4.5808628201484680e-01</leafValues></_>
        <_>
          <internalNodes>
            0 -1 61 1.0926175862550735e-02</internalNodes>
          <leafValues>
            1.9592490792274475e-01 -6.1163824796676636e-01</leafValues></_>
        <_>
          <internalNodes>
            0 -1 169 -4.5863548293709755e-03</internalNodes>
          <leafValues>
            -6.9880974292755127e-01 1.5627926588058472e-01</leafValues></_>
        <_>
          <internalNodes>
            0 -1 219 -1.5535593774984591e-05</internalNodes>
          <leafValues>
            4.0430369973182678e-01 -2.8419971466064453e-01</leafValues></_>
        <_>
          <internalNodes>
            0 -1 266 1.4576255343854427e-02</internalNodes>
          <leafValues>
            -1.8088735640048981e-01 7.6816755533218384e-01</leafValues></_>
        <_>
          <internalNodes>
            0 -1 24 5.9498839080333710e-02</internalNodes>
          <leafValues>
            -1.5597440302371979e-01 6.2392008304595947e-01</leafValues></_>
        <_>
          <internalNodes>
            0 -1 45 -4.3806664645671844e-02</internalNodes>
          <leafValues>
            6.0148531198501587e-01 -2.1977421641349792e-01</leafValues></_>
        <_>
          <internalNodes>
            0 -1 40 -7.7200606465339661e-03</internalNodes>
          <leafValues>
            8.0788618326187134e-01 -1.5245123207569122e-01</leafValues></_>
        <_>
          <internalNodes>
            0 -1 240 -1.3387402519583702e-02</internalNodes>
          <leafValues>
            8.3640497922897339e-01 -1.1942239105701447e-01</leafValues></_>
        <_>
          <internalNodes>
            0 -1 246 3.3556155860424042e-02</internalNodes>
          <leafValues>
            2.0066204667091370e-01 -6.9431477785110474e-01</leafValues></_></weakClassifiers></_>
    <!-- stage 19 -->
    <_>
      <maxWeakCount>12</maxWeakCount>
      <stageThreshold>-9.7326940298080444e-01</stageThreshold>
      <weakClassifiers>
        <_>
          <internalNodes>
            0 -1 238 -7.1323141455650330e-02</internalNodes>
          <leafValues>
            -4.4210526347160339e-01 4.2222222685813904e-01</leafValues></_>
        <_>
          <internalNodes>
            0 -1 190 -3.8901269435882568e-03</internalNodes>
          <leafValues>
            -5.3876489400863647e-01 1.6624912619590759e-01</leafValues></_>
        <_>
          <internalNodes>
            0 -1 211 4.7071147710084915e-03</internalNodes>
          <leafValues>
            1.6382904350757599e-01 -6.6099137067794800e-01</leafValues></_>
        <_>
          <internalNodes>
            0 -1 162 6.5749988425523043e-04</internalNodes>
          <leafValues>
            1.7807380855083466e-01 -5.7842749357223511e-01</leafValues></_>
        <_>
          <internalNodes>
            0 -1 139 7.4859615415334702e-03</internalNodes>
          <leafValues>
            -1.5711505711078644e-01 7.3186630010604858e-01</leafValues></_>
        <_>
          <internalNodes>
            0 -1 66 -1.5707403421401978e-01</internalNodes>
          <leafValues>
            -5.8886647224426270e-01 2.0328295230865479e-01</leafValues></_>
        <_>
          <internalNodes>
            0 -1 167 -4.3064691126346588e-03</internalNodes>
          <leafValues>
            8.6603283882141113e-01 -1.3260456919670105e-01</leafValues></_>
        <_>
          <internalNodes>
            0 -1 254 1.1592357623158023e-05</internalNodes>
          <leafValues>
            -3.2573631405830383e-01 3.3888289332389832e-01</leafValues></_>
        <_>
          <internalNodes>
            0 -1 135 5.6519225472584367e-04</internalNodes>
          <leafValues>
            2.3651657998561859e-01 -4.2973038554191589e-01</leafValues></_>
        <_>
          <internalNodes>
            0 -1 92 -1.0241331160068512e-01</internalNodes>
          <leafValues>
            -2.9955336451530457e-01 3.2948952913284302e-01</leafValues></_>
        <_>
          <internalNodes>
            0 -1 129 -1.9626973196864128e-02</internalNodes>
          <leafValues>
            4.7840064764022827e-01 -2.0009075105190277e-01</leafValues></_>
        <_>
          <internalNodes>
            0 -1 48 6.2044139485806227e-04</internalNodes>
          <leafValues>
            -2.9842439293861389e-01 4.6852871775627136e-01</leafValues></_></weakClassifiers></_>
    <!-- stage 20 -->
    <_>
      <maxWeakCount>7</maxWeakCount>
      <stageThreshold>-7.2008544206619263e-01</stageThreshold>
      <weakClassifiers>
        <_>
          <internalNodes>
            0 -1 223 6.5162748098373413e-02</internalNodes>
          <leafValues>
            -4.2569270730018616e-01 5.3424656391143799e-01</leafValues></_>
        <_>
          <internalNodes>
            0 -1 272 -5.7246708311140537e-03</internalNodes>
          <leafValues>
            -5.6863915920257568e-01 2.0056487619876862e-01</leafValues></_>
        <_>
          <internalNodes>
            0 -1 51 2.9521698132157326e-02</internalNodes>
          <leafValues>
            9.5257841050624847e-02 -8.8119620084762573e-01</leafValues></_>
        <_>
          <internalNodes>
            0 -1 50 -3.4941345453262329e-02</internalNodes>
          <leafValues>
            -5.6150835752487183e-01 1.9332456588745117e-01</leafValues></_>
        <_>
          <internalNodes>
            0 -1 216 -3.3748485147953033e-02</internalNodes>
          <leafValues>
            4.7667604684829712e-01 -2.4221284687519073e-01</leafValues></_>
        <_>
          <internalNodes>
            0 -1 191 -9.4109959900379181e-03</internalNodes>
          <leafValues>
            7.9476410150527954e-01 -1.2834934890270233e-01</leafValues></_>
        <_>
          <internalNodes>
            0 -1 262 -1.2159425750724040e-05</internalNodes>
          <leafValues>
            3.5622614622116089e-01 -2.7980992197990417e-01</leafValues></_></weakClassifiers></_>
    <!-- stage 21 -->
    <_>
      <maxWeakCount>11</maxWeakCount>
      <stageThreshold>-1.1006779670715332e+00</stageThreshold>
      <weakClassifiers>
        <_>
          <internalNodes>
            0 -1 230 3.1567659229040146e-02</internalNodes>
          <leafValues>
            -4.0394088625907898e-01 5.3125000000000000e-01</leafValues></_>
        <_>
          <internalNodes>
            0 -1 101 2.7638707309961319e-02</internalNodes>
          <leafValues>
            -1.7143197357654572e-01 7.8993630409240723e-01</leafValues></_>
        <_>
          <internalNodes>
            0 -1 269 -2.4444523660349660e-05</internalNodes>
          <leafValues>
            3.4389370679855347e-01 -3.0555444955825806e-01</leafValues></_>
        <_>
          <internalNodes>
            0 -1 258 2.5492566637694836e-03</internalNodes>
          <leafValues>
            -1.8289382755756378e-01 6.2021535634994507e-01</leafValues></_>
        <_>
          <internalNodes>
            0 -1 196 -1.4134353477857076e-05</internalNodes>
          <leafValues>
            3.7387767434120178e-01 -3.0490764975547791e-01</leafValues></_>
        <_>
          <internalNodes>
            0 -1 259 -6.3594483071938157e-04</internalNodes>
          <leafValues>
            7.0011913776397705e-01 -1.2713770568370819e-01</leafValues></_>
        <_>
          <internalNodes>
            0 -1 110 2.8128624762757681e-05</internalNodes>
          <leafValues>
            -2.4123765528202057e-01 3.9292171597480774e-01</leafValues></_>
        <_>
          <internalNodes>
            0 -1 158 4.6713027404621243e-04</internalNodes>
          <leafValues>
            1.7499601840972900e-01 -8.3907032012939453e-01</leafValues></_>
        <_>
          <internalNodes>
            0 -1 91 4.6776407398283482e-03</internalNodes>
          <leafValues>
            -1.8200550973415375e-01 8.1287407875061035e-01</leafValues></_>
        <_>
          <internalNodes>
            0 -1 75 7.0695700123906136e-03</internalNodes>
          <leafValues>
            2.0179042220115662e-01 -5.4182034730911255e-01</leafValues></_>
        <_>
          <internalNodes>
            0 -1 124 3.2783354981802404e-05</internalNodes>
          <leafValues>
            -2.6730135083198547e-01 3.7823286652565002e-01</leafValues></_></weakClassifiers></_>
    <!-- stage 22 -->
    <_>
      <maxWeakCount>13</maxWeakCount>
      <stageThreshold>-9.2864018678665161e-01</stageThreshold>
      <weakClassifiers>
        <_>
          <internalNodes>
            0 -1 7 -2.1385255455970764e-01</internalNodes>
          <leafValues>
            -6.2352943420410156e-01 -7.9999998211860657e-02</leafValues></_>
        <_>
          <internalNodes>
            0 -1 134 2.8239525272510946e-04</internalNodes>
          <leafValues>
            1.4000806212425232e-01 -5.5466318130493164e-01</leafValues></_>
        <_>
          <internalNodes>
            0 -1 270 -1.4861661475151777e-03</internalNodes>
          <leafValues>
            -8.3037412166595459e-01 1.1438757926225662e-01</leafValues></_>
        <_>
          <internalNodes>
            0 -1 67 -2.6009166613221169e-03</internalNodes>
          <leafValues>
            -7.5947928428649902e-01 1.0317234694957733e-01</leafValues></_>
        <_>
          <internalNodes>
            0 -1 42 -2.1809238940477371e-02</internalNodes>
          <leafValues>
            6.1434930562973022e-01 -1.6688327491283417e-01</leafValues></_>
        <_>
          <internalNodes>
            0 -1 281 1.8356284126639366e-03</internalNodes>
          <leafValues>
            1.4993892610073090e-01 -6.6248208284378052e-01</leafValues></_>
        <_>
          <internalNodes>
            0 -1 231 2.0785711705684662e-02</internalNodes>
          <leafValues>
            -2.0411421358585358e-01 4.1975578665733337e-01</leafValues></_>
        <_>
          <internalNodes>
            0 -1 98 -1.5999567694962025e-03</internalNodes>
          <leafValues>
            -6.7287236452102661e-01 1.3613767921924591e-01</leafValues></_>
        <_>
          <internalNodes>
            0 -1 68 5.3852132987231016e-04</internalNodes>
          <leafValues>
            1.1380675435066223e-01 -7.1866351366043091e-01</leafValues></_>
        <_>
          <internalNodes>
            0 -1 229 9.1060448903590441e-04</internalNodes>
          <leafValues>
            -2.5102350115776062e-01 4.2869955301284790e-01</leafValues></_>
        <_>
          <internalNodes>
            0 -1 58 1.0324468836188316e-02</internalNodes>
          <leafValues>
            -2.2352054715156555e-01 4.7454127669334412e-01</leafValues></_>
        <_>
          <internalNodes>
            0 -1 86 1.2726090848445892e-02</internalNodes>
          <leafValues>
            -1.6713173687458038e-01 5.1234447956085205e-01</leafValues></_>
        <_>
          <internalNodes>
            0 -1 156 3.8346583023667336e-03</internalNodes>
          <leafValues>
            -2.5212007761001587e-01 3.5548439621925354e-01</leafValues></_></weakClassifiers></_>
    <!-- stage 23 -->
    <_>
      <maxWeakCount>12</maxWeakCount>
      <stageThreshold>-8.6444824934005737e-01</stageThreshold>
      <weakClassifiers>
        <_>
          <internalNodes>
            0 -1 87 -5.6706974282860756e-03</internalNodes>
          <leafValues>
            6.1702126264572144e-01 -3.7588652968406677e-01</leafValues></_>
        <_>
          <internalNodes>
            0 -1 221 8.6210072040557861e-03</internalNodes>
          <leafValues>
            8.3140082657337189e-02 -7.1920812129974365e-01</leafValues></_>
        <_>
          <internalNodes>
            0 -1 178 -4.2226975783705711e-03</internalNodes>
          <leafValues>
            -6.2286043167114258e-01 1.6300617158412933e-01</leafValues></_>
        <_>
          <internalNodes>
            0 -1 65 -5.1391315646469593e-03</internalNodes>
          <leafValues>
            3.8097029924392700e-01 -2.2114251554012299e-01</leafValues></_>
        <_>
          <internalNodes>
            0 -1 115 -2.9229784850031137e-03</internalNodes>
          <leafValues>
            -7.1642959117889404e-01 1.0845161974430084e-01</leafValues></_>
        <_>
          <internalNodes>
            0 -1 76 -1.3724775984883308e-02</internalNodes>
          <leafValues>
            9.1784141957759857e-02 -7.9886281490325928e-01</leafValues></_>
        <_>
          <internalNodes>
            0 -1 37 4.3209497816860676e-03</internalNodes>
          <leafValues>
            1.1321483552455902e-01 -7.0986729860305786e-01</leafValues></_>
        <_>
          <internalNodes>
            0 -1 241 -2.1103173494338989e-03</internalNodes>
          <leafValues>
            3.3567622303962708e-01 -2.5125828385353088e-01</leafValues></_>
        <_>
          <internalNodes>
            0 -1 204 -1.7703054472804070e-02</internalNodes>
          <leafValues>
            6.2900006771087646e-01 -1.4788936078548431e-01</leafValues></_>
        <_>
          <internalNodes>
            0 -1 81 -3.4391067922115326e-02</internalNodes>
          <leafValues>
            -7.5671863555908203e-01 1.1481025815010071e-01</leafValues></_>
        <_>
          <internalNodes>
            0 -1 203 -1.3093405868858099e-03</internalNodes>
          <leafValues>
            -4.6906971931457520e-01 1.6894529759883881e-01</leafValues></_>
        <_>
          <internalNodes>
            0 -1 187 7.9867932945489883e-03</internalNodes>
          <leafValues>
            -1.3976188004016876e-01 7.2873932123184204e-01</leafValues></_></weakClassifiers></_>
    <!-- stage 24 -->
    <_>
      <maxWeakCount>12</maxWeakCount>
      <stageThreshold>-9.4197559356689453e-01</stageThreshold>
      <weakClassifiers>
        <_>
          <internalNodes>
            0 -1 171 1.2531312182545662e-02</internalNodes>
          <leafValues>
            -3.3632287383079529e-01 8.3333331346511841e-01</leafValues></_>
        <_>
          <internalNodes>
            0 -1 14 4.1757168946787715e-04</internalNodes>
          <leafValues>
            1.3656555116176605e-01 -6.2532997131347656e-01</leafValues></_>
        <_>
          <internalNodes>
            0 -1 260 3.1951409764587879e-03</internalNodes>
          <leafValues>
            -2.8203994035720825e-01 3.5030451416969299e-01</leafValues></_>
        <_>
          <internalNodes>
            0 -1 277 2.7112027164548635e-03</internalNodes>
          <leafValues>
            2.6155185699462891e-01 -4.0656548738479614e-01</leafValues></_>
        <_>
          <internalNodes>
            0 -1 174 2.0793152973055840e-02</internalNodes>
          <leafValues>
            -2.0745351910591125e-01 4.4736784696578979e-01</leafValues></_>
        <_>
          <internalNodes>
            0 -1 163 1.1101446580141783e-04</internalNodes>
          <leafValues>
            2.3476368188858032e-01 -3.4337139129638672e-01</leafValues></_>
        <_>
          <internalNodes>
            0 -1 8 -6.1407005414366722e-03</internalNodes>
          <leafValues>
            -8.4467858076095581e-01 9.9839046597480774e-02</leafValues></_>
        <_>
          <internalNodes>
            0 -1 276 -1.1804492532974109e-04</internalNodes>
          <leafValues>
            -4.6233922243118286e-01 1.7997567355632782e-01</leafValues></_>
        <_>
          <internalNodes>
            0 -1 39 5.5818017572164536e-03</internalNodes>
          <leafValues>
            -1.4914049208164215e-01 5.5569732189178467e-01</leafValues></_>
        <_>
          <internalNodes>
            0 -1 273 -6.6512788180261850e-05</internalNodes>
          <leafValues>
            -3.9009341597557068e-01 1.9509048759937286e-01</leafValues></_>
        <_>
          <internalNodes>
            0 -1 109 2.5283640716224909e-03</internalNodes>
          <leafValues>
            -2.0049674808979034e-01 4.5362141728401184e-01</leafValues></_>
        <_>
          <internalNodes>
            0 -1 28 -1.1573566589504480e-03</internalNodes>
          <leafValues>
            -9.4806200265884399e-01 1.0598222166299820e-01</leafValues></_></weakClassifiers></_>
    <!-- stage 25 -->
    <_>
      <maxWeakCount>13</maxWeakCount>
      <stageThreshold>-6.5941661596298218e-01</stageThreshold>
      <weakClassifiers>
        <_>
          <internalNodes>
            0 -1 141 -9.7517762333154678e-03</internalNodes>
          <leafValues>
            1.5254236757755280e-01 -4.2045453190803528e-01</leafValues></_>
        <_>
          <internalNodes>
            0 -1 85 2.7208048850297928e-03</internalNodes>
          <leafValues>
            -1.2060830742120743e-01 7.0789718627929688e-01</leafValues></_>
        <_>
          <internalNodes>
            0 -1 282 1.0623689740896225e-03</internalNodes>
          <leafValues>
            1.4222194254398346e-01 -5.1393216848373413e-01</leafValues></_>
        <_>
          <internalNodes>
            0 -1 242 1.4846825506538153e-03</internalNodes>
          <leafValues>
            -8.6557976901531219e-02 8.5088306665420532e-01</leafValues></_>
        <_>
          <internalNodes>
            0 -1 11 -5.0031295977532864e-03</internalNodes>
          <leafValues>
            -5.9552103281021118e-01 1.2806613743305206e-01</leafValues></_>
        <_>
          <internalNodes>
            0 -1 15 -2.3787822574377060e-02</internalNodes>
          <leafValues>
            3.9755019545555115e-01 -1.6709439456462860e-01</leafValues></_>
        <_>
          <internalNodes>
            0 -1 33 8.8092163205146790e-03</internalNodes>
          <leafValues>
            -1.7716841399669647e-01 5.7329279184341431e-01</leafValues></_>
        <_>
          <internalNodes>
            0 -1 145 -1.2536277063190937e-04</internalNodes>
          <leafValues>
            -4.0266153216362000e-01 2.3338840901851654e-01</leafValues></_>
        <_>
          <internalNodes>
            0 -1 55 -2.3897208273410797e-02</internalNodes>
          <leafValues>
            -8.6729454994201660e-01 7.5699344277381897e-02</leafValues></_>
        <_>
          <internalNodes>
            0 -1 22 -4.4034603983163834e-02</internalNodes>
          <leafValues>
            4.0791791677474976e-01 -2.2027261555194855e-01</leafValues></_>
        <_>
          <internalNodes>
            0 -1 239 2.9298472218215466e-03</internalNodes>
          <leafValues>
            -2.0732362568378448e-01 4.5890218019485474e-01</leafValues></_>
        <_>
          <internalNodes>
            0 -1 93 -2.0184729248285294e-02</internalNodes>
          <leafValues>
            5.2452564239501953e-01 -1.5479205548763275e-01</leafValues></_>
        <_>
          <internalNodes>
            0 -1 30 2.5422759354114532e-03</internalNodes>
          <leafValues>
            -3.2278272509574890e-01 3.6583456397056580e-01</leafValues></_></weakClassifiers></_>
    <!-- stage 26 -->
    <_>
      <maxWeakCount>12</maxWeakCount>
      <stageThreshold>-8.9651161432266235e-01</stageThreshold>
      <weakClassifiers>
        <_>
          <internalNodes>
            0 -1 83 -3.1880158931016922e-03</internalNodes>
          <leafValues>
            5.4385966062545776e-01 -3.8983049988746643e-01</leafValues></_>
        <_>
          <internalNodes>
            0 -1 114 1.3789231888949871e-03</internalNodes>
          <leafValues>
            9.8754741251468658e-02 -7.1697372198104858e-01</leafValues></_>
        <_>
          <internalNodes>
            0 -1 271 2.7947040507569909e-04</internalNodes>
          <leafValues>
            1.6560275852680206e-01 -5.2822262048721313e-01</leafValues></_>
        <_>
          <internalNodes>
            0 -1 189 3.3508087508380413e-03</internalNodes>
          <leafValues>
            -2.2190798819065094e-01 3.7054419517517090e-01</leafValues></_>
        <_>
          <internalNodes>
            0 -1 180 -2.9489728622138500e-03</internalNodes>
          <leafValues>
            4.0845465660095215e-01 -2.0926040410995483e-01</leafValues></_>
        <_>
          <internalNodes>
            0 -1 47 7.0160871837288141e-04</internalNodes>
          <leafValues>
            -2.3755721747875214e-01 2.8489834070205688e-01</leafValues></_>
        <_>
          <internalNodes>
            0 -1 121 1.3822983019053936e-02</internalNodes>
          <leafValues>
            2.1517275273799896e-01 -3.3161976933479309e-01</leafValues></_>
        <_>
          <internalNodes>
            0 -1 243 -9.5649110153317451e-04</internalNodes>
          <leafValues>
            4.8028612136840820e-01 -1.5692667663097382e-01</leafValues></_>
        <_>
          <internalNodes>
            0 -1 261 1.0520142968744040e-03</internalNodes>
          <leafValues>
            -1.8147301673889160e-01 4.9105328321456909e-01</leafValues></_>
        <_>
          <internalNodes>
            0 -1 173 1.0277815163135529e-03</internalNodes>
          <leafValues>
            1.7382268607616425e-01 -4.5644378662109375e-01</leafValues></_>
        <_>
          <internalNodes>
            0 -1 181 -2.5859684683382511e-03</internalNodes>
          <leafValues>
            -6.1885404586791992e-01 1.1467293649911880e-01</leafValues></_>
        <_>
          <internalNodes>
            0 -1 122 -7.5549614848569036e-04</internalNodes>
          <leafValues>
            6.6504377126693726e-01 -1.4187149703502655e-01</leafValues></_></weakClassifiers></_>
    <!-- stage 27 -->
    <_>
      <maxWeakCount>13</maxWeakCount>
      <stageThreshold>-8.1033205986022949e-01</stageThreshold>
      <weakClassifiers>
        <_>
          <internalNodes>
            0 -1 1 -1.2593921273946762e-03</internalNodes>
          <leafValues>
            -6.5467625856399536e-01 -1.1782477051019669e-01</leafValues></_>
        <_>
          <internalNodes>
            0 -1 245 1.4512717025354505e-03</internalNodes>
          <leafValues>
            7.3080793023109436e-02 -7.2410655021667480e-01</leafValues></_>
        <_>
          <internalNodes>
            0 -1 32 -6.0769042465835810e-04</internalNodes>
          <leafValues>
            -5.9955978393554688e-01 1.1373334378004074e-01</leafValues></_>
        <_>
          <internalNodes>
            0 -1 29 2.5127390399575233e-03</internalNodes>
          <leafValues>
            -1.8754769861698151e-01 4.0281754732131958e-01</leafValues></_>
        <_>
          <internalNodes>
            0 -1 228 -9.6771325916051865e-03</internalNodes>
          <leafValues>
            4.6082589030265808e-01 -1.4653006196022034e-01</leafValues></_>
        <_>
          <internalNodes>
            0 -1 232 1.7062205821275711e-02</internalNodes>
          <leafValues>
            -1.8072073161602020e-01 6.0219079256057739e-01</leafValues></_>
        <_>
          <internalNodes>
            0 -1 224 -5.4425874259322882e-04</internalNodes>
          <leafValues>
            -4.9357143044471741e-01 1.6642728447914124e-01</leafValues></_>
        <_>
          <internalNodes>
            0 -1 184 1.2167412787675858e-03</internalNodes>
          <leafValues>
            -2.1613872051239014e-01 4.4473373889923096e-01</leafValues></_>
        <_>
          <internalNodes>
            0 -1 63 3.6323789507150650e-02</internalNodes>
          <leafValues>
            1.1241206526756287e-01 -8.6332577466964722e-01</leafValues></_>
        <_>
          <internalNodes>
            0 -1 205 1.0922297406068537e-05</internalNodes>
          <leafValues>
            -2.7128937840461731e-01 2.6010459661483765e-01</leafValues></_>
        <_>
          <internalNodes>
            0 -1 71 2.1563583984971046e-02</internalNodes>
          <leafValues>
            -1.5244169533252716e-01 5.0309860706329346e-01</leafValues></_>
        <_>
          <internalNodes>
            0 -1 31 4.3088142410852015e-04</internalNodes>
          <leafValues>
            1.2629868090152740e-01 -6.2401223182678223e-01</leafValues></_>
        <_>
          <internalNodes>
            0 -1 283 2.7442281134426594e-03</internalNodes>
          <leafValues>
            9.0279534459114075e-02 -7.8533142805099487e-01</leafValues></_></weakClassifiers></_>
    <!-- stage 28 -->
    <_>
      <maxWeakCount>13</maxWeakCount>
      <stageThreshold>-1.1340508460998535e+00</stageThreshold>
      <weakClassifiers>
        <_>
          <internalNodes>
            0 -1 186 -1.1744280345737934e-03</internalNodes>
          <leafValues>
            5.7894736528396606e-01 -3.5185185074806213e-01</leafValues></_>
        <_>
          <internalNodes>
            0 -1 36 -4.7787427902221680e-03</internalNodes>
          <leafValues>
            -6.0153442621231079e-01 1.0793101042509079e-01</leafValues></_>
        <_>
          <internalNodes>
            0 -1 199 5.9526104450924322e-05</internalNodes>
          <leafValues>
            2.1094027161598206e-01 -4.2617377638816833e-01</leafValues></_>
        <_>
          <internalNodes>
            0 -1 200 1.0225690202787519e-03</internalNodes>
          <leafValues>
            1.5119726955890656e-01 -5.4219865798950195e-01</leafValues></_>
        <_>
          <internalNodes>
            0 -1 234 -8.0017303116619587e-04</internalNodes>
          <leafValues>
            5.2029234170913696e-01 -1.4723864197731018e-01</leafValues></_>
        <_>
          <internalNodes>
            0 -1 264 1.2846087105572224e-02</internalNodes>
          <leafValues>
            -2.4784778058528900e-01 3.2228496670722961e-01</leafValues></_>
        <_>
          <internalNodes>
            0 -1 257 -5.3702550940215588e-03</internalNodes>
          <leafValues>
            4.3383443355560303e-01 -1.9667327404022217e-01</leafValues></_>
        <_>
          <internalNodes>
            0 -1 207 5.3186072036623955e-03</internalNodes>
          <leafValues>
            -1.5470810234546661e-01 5.0790071487426758e-01</leafValues></_>
        <_>
          <internalNodes>
            0 -1 212 -4.5271503040567040e-04</internalNodes>
          <leafValues>
            2.9046943783760071e-01 -2.8210997581481934e-01</leafValues></_>
        <_>
          <internalNodes>
            0 -1 155 -1.4175876276567578e-04</internalNodes>
          <leafValues>
            -3.9599007368087769e-01 2.3381693661212921e-01</leafValues></_>
        <_>
          <internalNodes>
            0 -1 82 7.9139543231576681e-04</internalNodes>
          <leafValues>
            -1.7189212143421173e-01 5.1786512136459351e-01</leafValues></_>
        <_>
          <internalNodes>
            0 -1 111 3.3972300589084625e-02</internalNodes>
          <leafValues>
            -1.8781115114688873e-01 4.7820216417312622e-01</leafValues></_>
        <_>
          <internalNodes>
            0 -1 252 1.5296270139515400e-03</internalNodes>
          <leafValues>
            -9.8504111170768738e-02 8.8788115978240967e-01</leafValues></_></weakClassifiers></_>
    <!-- stage 29 -->
    <_>
      <maxWeakCount>13</maxWeakCount>
      <stageThreshold>-7.7686774730682373e-01</stageThreshold>
      <weakClassifiers>
        <_>
          <internalNodes>
            0 -1 237 6.4247809350490570e-03</internalNodes>
          <leafValues>
            -3.5185185074806213e-01 5.7894736528396606e-01</leafValues></_>
        <_>
          <internalNodes>
            0 -1 94 2.0022969692945480e-03</internalNodes>
          <leafValues>
            5.0630290061235428e-02 -8.2201457023620605e-01</leafValues></_>
        <_>
          <internalNodes>
            0 -1 235 2.1487593650817871e-02</internalNodes>
          <leafValues>
            1.3218495249748230e-01 -1.</leafValues></_>
        <_>
          <internalNodes>
            0 -1 21 -3.5561341792345047e-03</internalNodes>
          <leafValues>
            3.5678631067276001e-01 -2.4400697648525238e-01</leafValues></_>
        <_>
          <internalNodes>
            0 -1 102 3.0404770746827126e-02</internalNodes>
          <leafValues>
            -1.1934015154838562e-01 6.0039287805557251e-01</leafValues></_>
        <_>
          <internalNodes>
            0 -1 60 1.5557789802551270e-01</internalNodes>
          <leafValues>
            1.4733056724071503e-01 -5.2505737543106079e-01</leafValues></_>
        <_>
          <internalNodes>
            0 -1 74 5.4032457992434502e-03</internalNodes>
          <leafValues>
            -2.5921019911766052e-01 2.8986135125160217e-01</leafValues></_>
        <_>
          <internalNodes>
            0 -1 253 -1.2420872226357460e-03</internalNodes>
          <leafValues>
            5.3601837158203125e-01 -1.3806454837322235e-01</leafValues></_>
        <_>
          <internalNodes>
            0 -1 53 6.5267732134088874e-04</internalNodes>
          <leafValues>
            1.3636454939842224e-01 -6.2099498510360718e-01</leafValues></_>
        <_>
          <internalNodes>
            0 -1 69 1.0886006988584995e-02</internalNodes>
          <leafValues>
            -1.7333835363388062e-01 5.2933293581008911e-01</leafValues></_>
        <_>
          <internalNodes>
            0 -1 226 3.1511776614934206e-04</internalNodes>
          <leafValues>
            1.5200090408325195e-01 -5.2878463268280029e-01</leafValues></_>
        <_>
          <internalNodes>
            0 -1 46 -2.3316375911235809e-02</internalNodes>
          <leafValues>
            3.2603764533996582e-01 -2.8443655371665955e-01</leafValues></_>
        <_>
          <internalNodes>
            0 -1 125 -4.9433414824306965e-04</internalNodes>
          <leafValues>
            2.7966129779815674e-01 -2.9420965909957886e-01</leafValues></_></weakClassifiers></_></stages>
  <features>
    <_>
      <rects>
        <_>
          0 0 2 2 -1.</_>
        <_>
          0 0 1 1 2.</_>
        <_>
          1 1 1 1 2.</_></rects>
      <tilted>0</tilted></_>
    <_>
      <rects>
        <_>
          0 0 6 1 -1.</_>
        <_>
          3 0 3 1 2.</_></rects>
      <tilted>0</tilted></_>
    <_>
      <rects>
        <_>
          0 0 6 2 -1.</_>
        <_>
          0 0 3 1 2.</_>
        <_>
          3 1 3 1 2.</_></rects>
      <tilted>0</tilted></_>
    <_>
      <rects>
        <_>
          0 0 8 24 -1.</_>
        <_>
          4 0 4 24 2.</_></rects>
      <tilted>0</tilted></_>
    <_>
      <rects>
        <_>
          0 0 24 23 -1.</_>
        <_>
          8 0 8 23 2.</_></rects>
      <tilted>0</tilted></_>
    <_>
      <rects>
        <_>
          0 0 24 24 -1.</_>
        <_>
          8 0 8 24 2.</_></rects>
      <tilted>0</tilted></_>
    <_>
      <rects>
        <_>
          0 0 24 6 -1.</_>
        <_>
          0 2 24 2 2.</_></rects>
      <tilted>0</tilted></_>
    <_>
      <rects>
        <_>
          0 0 24 24 -1.</_>
        <_>
          0 12 24 12 2.</_></rects>
      <tilted>0</tilted></_>
    <_>
      <rects>
        <_>
          0 1 1 6 -1.</_>
        <_>
          0 4 1 3 2.</_></rects>
      <tilted>0</tilted></_>
    <_>
      <rects>
        <_>
          0 2 2 1 -1.</_>
        <_>
          1 2 1 1 2.</_></rects>
      <tilted>0</tilted></_>
    <_>
      <rects>
        <_>
          0 2 1 2 -1.</_>
        <_>
          0 3 1 1 2.</_></rects>
      <tilted>0</tilted></_>
    <_>
      <rects>
        <_>
          0 2 2 8 -1.</_>
        <_>
          1 2 1 8 2.</_></rects>
      <tilted>0</tilted></_>
    <_>
      <rects>
        <_>
          0 2 9 1 -1.</_>
        <_>
          3 2 3 1 2.</_></rects>
      <tilted>0</tilted></_>
    <_>
      <rects>
        <_>
          0 3 1 6 -1.</_>
        <_>
          0 5 1 2 2.</_></rects>
      <tilted>0</tilted></_>
    <_>
      <rects>
        <_>
          0 3 2 2 -1.</_>
        <_>
          0 4 2 1 2.</_></rects>
      <tilted>0</tilted></_>
    <_>
      <rects>
        <_>
          0 3 4 20 -1.</_>
        <_>
          2 3 2 20 2.</_></rects>
      <tilted>0</tilted></_>
    <_>
      <rects>
        <_>
          0 3 10 13 -1.</_>
        <_>
          5 3 5 13 2.</_></rects>
      <tilted>0</tilted></_>
    <_>
      <rects>
        <_>
          0 4 4 18 -1.</_>
        <_>
          2 4 2 18 2.</_></rects>
      <tilted>0</tilted></_>
    <_>
      <rects>
        <_>
          0 4 6 18 -1.</_>
        <_>
          3 4 3 18 2.</_></rects>
      <tilted>0</tilted></_>
    <_>
      <rects>
        <_>
          0 4 12 17 -1.</_>
        <_>
          6 4 6 17 2.</_></rects>
      <tilted>0</tilted></_>
    <_>
      <rects>
        <_>
          0 5 14 15 -1.</_>
        <_>
          7 5 7 15 2.</_></rects>
      <tilted>0</tilted></_>
    <_>
      <rects>
        <_>
          0 6 6 1 -1.</_>
        <_>
          3 6 3 1 2.</_></rects>
      <tilted>0</tilted></_>
    <_>
      <rects>
        <_>
          0 6 16 14 -1.</_>
        <_>
          0 6 8 7 2.</_>
        <_>
          8 13 8 7 2.</_></rects>
      <tilted>0</tilted></_>
    <_>
      <rects>
        <_>
          0 7 6 15 -1.</_>
        <_>
          3 7 3 15 2.</_></rects>
      <tilted>0</tilted></_>
    <_>
      <rects>
        <_>
          0 11 12 9 -1.</_>
        <_>
          6 11 6 9 2.</_></rects>
      <tilted>0</tilted></_>
    <_>
      <rects>
        <_>
          0 12 10 11 -1.</_>
        <_>
          5 12 5 11 2.</_></rects>
      <tilted>0</tilted></_>
    <_>
      <rects>
        <_>
          0 12 24 12 -1.</_>
        <_>
          0 16 24 4 2.</_></rects>
      <tilted>0</tilted></_>
    <_>
      <rects>
        <_>
          0 14 4 5 -1.</_>
        <_>
          2 14 2 5 2.</_></rects>
      <tilted>0</tilted></_>
    <_>
      <rects>
        <_>
          0 17 1 2 -1.</_>
        <_>
          0 18 1 1 2.</_></rects>
      <tilted>0</tilted></_>
    <_>
      <rects>
        <_>
          0 20 6 4 -1.</_>
        <_>
          0 20 3 2 2.</_>
        <_>
          3 22 3 2 2.</_></rects>
      <tilted>0</tilted></_>
    <_>
      <rects>
        <_>
          0 20 15 4 -1.</_>
        <_>
          0 22 15 2 2.</_></rects>
      <tilted>0</tilted></_>
    <_>
      <rects>
        <_>
          0 21 2 1 -1.</_>
        <_>
          1 21 1 1 2.</_></rects>
      <tilted>0</tilted></_>
    <_>
      <rects>
        <_>
          0 21 1 2 -1.</_>
        <_>
          0 22 1 1 2.</_></rects>
      <tilted>0</tilted></_>
    <_>
      <rects>
        <_>
          0 21 10 1 -1.</_>
        <_>
          5 21 5 1 2.</_></rects>
      <tilted>0</tilted></_>
    <_>
      <rects>
        <_>
          0 23 2 1 -1.</_>
        <_>
          1 23 1 1 2.</_></rects>
      <tilted>0</tilted></_>
    <_>
      <rects>
        <_>
          1 0 2 1 -1.</_>
        <_>
          2 0 1 1 2.</_></rects>
      <tilted>0</tilted></_>
    <_>
      <rects>
        <_>
          1 0 1 8 -1.</_>
        <_>
          1 4 1 4 2.</_></rects>
      <tilted>0</tilted></_>
    <_>
      <rects>
        <_>
          1 0 8 1 -1.</_>
        <_>
          5 0 4 1 2.</_></rects>
      <tilted>0</tilted></_>
    <_>
      <rects>
        <_>
          1 0 8 12 -1.</_>
        <_>
          1 0 4 6 2.</_>
        <_>
          5 6 4 6 2.</_></rects>
      <tilted>0</tilted></_>
    <_>
      <rects>
        <_>
          1 1 14 2 -1.</_>
        <_>
          1 1 7 1 2.</_>
        <_>
          8 2 7 1 2.</_></rects>
      <tilted>0</tilted></_>
    <_>
      <rects>
        <_>
          1 2 22 2 -1.</_>
        <_>
          1 2 11 1 2.</_>
        <_>
          12 3 11 1 2.</_></rects>
      <tilted>0</tilted></_>
    <_>
      <rects>
        <_>
          1 2 22 17 -1.</_>
        <_>
          12 2 11 17 2.</_></rects>
      <tilted>0</tilted></_>
    <_>
      <rects>
        <_>
          1 3 10 2 -1.</_>
        <_>
          6 3 5 2 2.</_></rects>
      <tilted>0</tilted></_>
    <_>
      <rects>
        <_>
          1 4 6 11 -1.</_>
        <_>
          4 4 3 11 2.</_></rects>
      <tilted>0</tilted></_>
    <_>
      <rects>
        <_>
          1 4 6 16 -1.</_>
        <_>
          4 4 3 16 2.</_></rects>
      <tilted>0</tilted></_>
    <_>
      <rects>
        <_>
          1 4 8 8 -1.</_>
        <_>
          5 4 4 8 2.</_></rects>
      <tilted>0</tilted></_>
    <_>
      <rects>
        <_>
          1 4 8 12 -1.</_>
        <_>
          5 4 4 12 2.</_></rects>
      <tilted>0</tilted></_>
    <_>
      <rects>
        <_>
          1 5 7 2 -1.</_>
        <_>
          1 6 7 1 2.</_></rects>
      <tilted>0</tilted></_>
    <_>
      <rects>
        <_>
          1 6 4 3 -1.</_>
        <_>
          3 6 2 3 2.</_></rects>
      <tilted>0</tilted></_>
    <_>
      <rects>
        <_>
          1 8 8 4 -1.</_>
        <_>
          5 8 4 4 2.</_></rects>
      <tilted>0</tilted></_>
    <_>
      <rects>
        <_>
          1 12 23 6 -1.</_>
        <_>
          1 15 23 3 2.</_></rects>
      <tilted>0</tilted></_>
    <_>
      <rects>
        <_>
          1 13 20 4 -1.</_>
        <_>
          1 15 20 2 2.</_></rects>
      <tilted>0</tilted></_>
    <_>
      <rects>
        <_>
          1 18 6 2 -1.</_>
        <_>
          4 18 3 2 2.</_></rects>
      <tilted>0</tilted></_>
    <_>
      <rects>
        <_>
          1 22 1 2 -1.</_>
        <_>
          1 23 1 1 2.</_></rects>
      <tilted>0</tilted></_>
    <_>
      <rects>
        <_>
          1 22 20 2 -1.</_>
        <_>
          11 22 10 2 2.</_></rects>
      <tilted>0</tilted></_>
    <_>
      <rects>
        <_>
          1 23 22 1 -1.</_>
        <_>
          12 23 11 1 2.</_></rects>
      <tilted>0</tilted></_>
    <_>
      <rects>
        <_>
          2 0 4 1 -1.</_>
        <_>
          4 0 2 1 2.</_></rects>
      <tilted>0</tilted></_>
    <_>
      <rects>
        <_>
          2 0 6 12 -1.</_>
        <_>
          2 0 3 6 2.</_>
        <_>
          5 6 3 6 2.</_></rects>
      <tilted>0</tilted></_>
    <_>
      <rects>
        <_>
          2 0 16 4 -1.</_>
        <_>
          2 0 8 2 2.</_>
        <_>
          10 2 8 2 2.</_></rects>
      <tilted>0</tilted></_>
    <_>
      <rects>
        <_>
          2 0 22 16 -1.</_>
        <_>
          2 8 22 8 2.</_></rects>
      <tilted>0</tilted></_>
    <_>
      <rects>
        <_>
          2 0 22 24 -1.</_>
        <_>
          2 12 22 12 2.</_></rects>
      <tilted>0</tilted></_>
    <_>
      <rects>
        <_>
          2 1 20 1 -1.</_>
        <_>
          12 1 10 1 2.</_></rects>
      <tilted>0</tilted></_>
    <_>
      <rects>
        <_>
          2 2 2 17 -1.</_>
        <_>
          3 2 1 17 2.</_></rects>
      <tilted>0</tilted></_>
    <_>
      <rects>
        <_>
          2 2 4 10 -1.</_>
        <_>
          2 7 4 5 2.</_></rects>
      <tilted>0</tilted></_>
    <_>
      <rects>
        <_>
          2 2 11 3 -1.</_>
        <_>
          2 3 11 1 2.</_></rects>
      <tilted>0</tilted></_>
    <_>
      <rects>
        <_>
          2 3 2 16 -1.</_>
        <_>
          3 3 1 16 2.</_></rects>
      <tilted>0</tilted></_>
    <_>
      <rects>
        <_>
          2 3 20 21 -1.</_>
        <_>
          12 3 10 21 2.</_></rects>
      <tilted>0</tilted></_>
    <_>
      <rects>
        <_>
          2 9 4 2 -1.</_>
        <_>
          2 10 4 1 2.</_></rects>
      <tilted>0</tilted></_>
    <_>
      <rects>
        <_>
          2 10 1 2 -1.</_>
        <_>
          2 11 1 1 2.</_></rects>
      <tilted>0</tilted></_>
    <_>
      <rects>
        <_>
          2 11 6 2 -1.</_>
        <_>
          5 11 3 2 2.</_></rects>
      <tilted>0</tilted></_>
    <_>
      <rects>
        <_>
          2 13 4 6 -1.</_>
        <_>
          2 13 2 3 2.</_>
        <_>
          4 16 2 3 2.</_></rects>
      <tilted>0</tilted></_>
    <_>
      <rects>
        <_>
          2 14 8 10 -1.</_>
        <_>
          2 14 4 5 2.</_>
        <_>
          6 19 4 5 2.</_></rects>
      <tilted>0</tilted></_>
    <_>
      <rects>
        <_>
          2 15 13 9 -1.</_>
        <_>
          2 18 13 3 2.</_></rects>
      <tilted>0</tilted></_>
    <_>
      <rects>
        <_>
          2 22 13 2 -1.</_>
        <_>
          2 23 13 1 2.</_></rects>
      <tilted>0</tilted></_>
    <_>
      <rects>
        <_>
          2 22 16 2 -1.</_>
        <_>
          2 23 16 1 2.</_></rects>
      <tilted>0</tilted></_>
    <_>
      <rects>
        <_>
          2 23 18 1 -1.</_>
        <_>
          11 23 9 1 2.</_></rects>
      <tilted>0</tilted></_>
    <_>
      <rects>
        <_>
          3 0 6 5 -1.</_>
        <_>
          5 0 2 5 2.</_></rects>
      <tilted>0</tilted></_>
    <_>
      <rects>
        <_>
          3 0 15 24 -1.</_>
        <_>
          8 0 5 24 2.</_></rects>
      <tilted>0</tilted></_>
    <_>
      <rects>
        <_>
          3 0 20 14 -1.</_>
        <_>
          3 0 10 7 2.</_>
        <_>
          13 7 10 7 2.</_></rects>
      <tilted>0</tilted></_>
    <_>
      <rects>
        <_>
          3 0 14 6 -1.</_>
        <_>
          3 3 14 3 2.</_></rects>
      <tilted>0</tilted></_>
    <_>
      <rects>
        <_>
          3 0 20 6 -1.</_>
        <_>
          3 3 20 3 2.</_></rects>
      <tilted>0</tilted></_>
    <_>
      <rects>
        <_>
          3 1 2 16 -1.</_>
        <_>
          3 9 2 8 2.</_></rects>
      <tilted>0</tilted></_>
    <_>
      <rects>
        <_>
          3 2 4 2 -1.</_>
        <_>
          3 2 2 1 2.</_>
        <_>
          5 3 2 1 2.</_></rects>
      <tilted>0</tilted></_>
    <_>
      <rects>
        <_>
          3 4 2 2 -1.</_>
        <_>
          4 4 1 2 2.</_></rects>
      <tilted>0</tilted></_>
    <_>
      <rects>
        <_>
          3 4 10 4 -1.</_>
        <_>
          3 6 10 2 2.</_></rects>
      <tilted>0</tilted></_>
    <_>
      <rects>
        <_>
          3 5 2 2 -1.</_>
        <_>
          4 5 1 2 2.</_></rects>
      <tilted>0</tilted></_>
    <_>
      <rects>
        <_>
          3 6 14 6 -1.</_>
        <_>
          3 6 7 3 2.</_>
        <_>
          10 9 7 3 2.</_></rects>
      <tilted>0</tilted></_>
    <_>
      <rects>
        <_>
          3 7 2 3 -1.</_>
        <_>
          4 7 1 3 2.</_></rects>
      <tilted>0</tilted></_>
    <_>
      <rects>
        <_>
          3 9 9 14 -1.</_>
        <_>
          6 9 3 14 2.</_></rects>
      <tilted>0</tilted></_>
    <_>
      <rects>
        <_>
          3 11 6 2 -1.</_>
        <_>
          6 11 3 2 2.</_></rects>
      <tilted>0</tilted></_>
    <_>
      <rects>
        <_>
          3 12 4 10 -1.</_>
        <_>
          3 12 2 5 2.</_>
        <_>
          5 17 2 5 2.</_></rects>
      <tilted>0</tilted></_>
    <_>
      <rects>
        <_>
          3 14 2 4 -1.</_>
        <_>
          4 14 1 4 2.</_></rects>
      <tilted>0</tilted></_>
    <_>
      <rects>
        <_>
          3 17 12 6 -1.</_>
        <_>
          3 19 12 2 2.</_></rects>
      <tilted>0</tilted></_>
    <_>
      <rects>
        <_>
          3 20 15 4 -1.</_>
        <_>
          3 22 15 2 2.</_></rects>
      <tilted>0</tilted></_>
    <_>
      <rects>
        <_>
          3 21 2 3 -1.</_>
        <_>
          4 21 1 3 2.</_></rects>
      <tilted>0</tilted></_>
    <_>
      <rects>
        <_>
          3 23 4 1 -1.</_>
        <_>
          5 23 2 1 2.</_></rects>
      <tilted>0</tilted></_>
    <_>
      <rects>
        <_>
          3 23 10 1 -1.</_>
        <_>
          8 23 5 1 2.</_></rects>
      <tilted>0</tilted></_>
    <_>
      <rects>
        <_>
          4 0 4 1 -1.</_>
        <_>
          6 0 2 1 2.</_></rects>
      <tilted>0</tilted></_>
    <_>
      <rects>
        <_>
          4 0 6 1 -1.</_>
        <_>
          7 0 3 1 2.</_></rects>
      <tilted>0</tilted></_>
    <_>
      <rects>
        <_>
          4 0 6 14 -1.</_>
        <_>
          4 7 6 7 2.</_></rects>
      <tilted>0</tilted></_>
    <_>
      <rects>
        <_>
          4 0 16 24 -1.</_>
        <_>
          12 0 8 24 2.</_></rects>
      <tilted>0</tilted></_>
    <_>
      <rects>
        <_>
          4 0 12 4 -1.</_>
        <_>
          4 2 12 2 2.</_></rects>
      <tilted>0</tilted></_>
    <_>
      <rects>
        <_>
          4 0 14 4 -1.</_>
        <_>
          4 2 14 2 2.</_></rects>
      <tilted>0</tilted></_>
    <_>
      <rects>
        <_>
          4 0 15 4 -1.</_>
        <_>
          4 2 15 2 2.</_></rects>
      <tilted>0</tilted></_>
    <_>
      <rects>
        <_>
          4 0 20 6 -1.</_>
        <_>
          4 2 20 2 2.</_></rects>
      <tilted>0</tilted></_>
    <_>
      <rects>
        <_>
          4 5 1 3 -1.</_>
        <_>
          4 6 1 1 2.</_></rects>
      <tilted>0</tilted></_>
    <_>
      <rects>
        <_>
          4 5 2 8 -1.</_>
        <_>
          4 5 1 4 2.</_>
        <_>
          5 9 1 4 2.</_></rects>
      <tilted>0</tilted></_>
    <_>
      <rects>
        <_>
          4 6 1 18 -1.</_>
        <_>
          4 12 1 6 2.</_></rects>
      <tilted>0</tilted></_>
    <_>
      <rects>
        <_>
          4 9 2 6 -1.</_>
        <_>
          5 9 1 6 2.</_></rects>
      <tilted>0</tilted></_>
    <_>
      <rects>
        <_>
          4 11 2 5 -1.</_>
        <_>
          5 11 1 5 2.</_></rects>
      <tilted>0</tilted></_>
    <_>
      <rects>
        <_>
          4 14 4 2 -1.</_>
        <_>
          4 14 2 1 2.</_>
        <_>
          6 15 2 1 2.</_></rects>
      <tilted>0</tilted></_>
    <_>
      <rects>
        <_>
          4 14 8 10 -1.</_>
        <_>
          4 19 8 5 2.</_></rects>
      <tilted>0</tilted></_>
    <_>
      <rects>
        <_>
          4 16 1 6 -1.</_>
        <_>
          4 19 1 3 2.</_></rects>
      <tilted>0</tilted></_>
    <_>
      <rects>
        <_>
          4 22 15 2 -1.</_>
        <_>
          4 23 15 1 2.</_></rects>
      <tilted>0</tilted></_>
    <_>
      <rects>
        <_>
          4 23 4 1 -1.</_>
        <_>
          6 23 2 1 2.</_></rects>
      <tilted>0</tilted></_>
    <_>
      <rects>
        <_>
          5 0 6 1 -1.</_>
        <_>
          8 0 3 1 2.</_></rects>
      <tilted>0</tilted></_>
    <_>
      <rects>
        <_>
          5 0 5 4 -1.</_>
        <_>
          5 2 5 2 2.</_></rects>
      <tilted>0</tilted></_>
    <_>
      <rects>
        <_>
          5 0 14 20 -1.</_>
        <_>
          12 0 7 20 2.</_></rects>
      <tilted>0</tilted></_>
    <_>
      <rects>
        <_>
          5 0 10 4 -1.</_>
        <_>
          5 2 10 2 2.</_></rects>
      <tilted>0</tilted></_>
    <_>
      <rects>
        <_>
          5 0 14 4 -1.</_>
        <_>
          5 2 14 2 2.</_></rects>
      <tilted>0</tilted></_>
    <_>
      <rects>
        <_>
          5 4 2 12 -1.</_>
        <_>
          5 4 1 6 2.</_>
        <_>
          6 10 1 6 2.</_></rects>
      <tilted>0</tilted></_>
    <_>
      <rects>
        <_>
          5 5 19 10 -1.</_>
        <_>
          5 10 19 5 2.</_></rects>
      <tilted>0</tilted></_>
    <_>
      <rects>
        <_>
          5 11 2 2 -1.</_>
        <_>
          5 11 1 1 2.</_>
        <_>
          6 12 1 1 2.</_></rects>
      <tilted>0</tilted></_>
    <_>
      <rects>
        <_>
          5 18 15 6 -1.</_>
        <_>
          5 21 15 3 2.</_></rects>
      <tilted>0</tilted></_>
    <_>
      <rects>
        <_>
          5 19 2 3 -1.</_>
        <_>
          6 19 1 3 2.</_></rects>
      <tilted>0</tilted></_>
    <_>
      <rects>
        <_>
          5 19 15 2 -1.</_>
        <_>
          5 20 15 1 2.</_></rects>
      <tilted>0</tilted></_>
    <_>
      <rects>
        <_>
          5 20 4 4 -1.</_>
        <_>
          5 22 4 2 2.</_></rects>
      <tilted>0</tilted></_>
    <_>
      <rects>
        <_>
          6 0 6 1 -1.</_>
        <_>
          9 0 3 1 2.</_></rects>
      <tilted>0</tilted></_>
    <_>
      <rects>
        <_>
          6 0 12 2 -1.</_>
        <_>
          6 1 12 1 2.</_></rects>
      <tilted>0</tilted></_>
    <_>
      <rects>
        <_>
          6 0 12 4 -1.</_>
        <_>
          6 2 12 2 2.</_></rects>
      <tilted>0</tilted></_>
    <_>
      <rects>
        <_>
          6 0 12 8 -1.</_>
        <_>
          6 4 12 4 2.</_></rects>
      <tilted>0</tilted></_>
    <_>
      <rects>
        <_>
          6 0 14 8 -1.</_>
        <_>
          6 4 14 4 2.</_></rects>
      <tilted>0</tilted></_>
    <_>
      <rects>
        <_>
          6 1 6 1 -1.</_>
        <_>
          8 1 2 1 2.</_></rects>
      <tilted>0</tilted></_>
    <_>
      <rects>
        <_>
          6 2 8 2 -1.</_>
        <_>
          6 2 4 1 2.</_>
        <_>
          10 3 4 1 2.</_></rects>
      <tilted>0</tilted></_>
    <_>
      <rects>
        <_>
          6 8 1 2 -1.</_>
        <_>
          6 9 1 1 2.</_></rects>
      <tilted>0</tilted></_>
    <_>
      <rects>
        <_>
          6 9 8 1 -1.</_>
        <_>
          10 9 4 1 2.</_></rects>
      <tilted>0</tilted></_>
    <_>
      <rects>
        <_>
          6 17 6 7 -1.</_>
        <_>
          8 17 2 7 2.</_></rects>
      <tilted>0</tilted></_>
    <_>
      <rects>
        <_>
          6 20 6 4 -1.</_>
        <_>
          6 22 6 2 2.</_></rects>
      <tilted>0</tilted></_>
    <_>
      <rects>
        <_>
          6 21 18 3 -1.</_>
        <_>
          6 22 18 1 2.</_></rects>
      <tilted>0</tilted></_>
    <_>
      <rects>
        <_>
          6 22 5 2 -1.</_>
        <_>
          6 23 5 1 2.</_></rects>
      <tilted>0</tilted></_>
    <_>
      <rects>
        <_>
          6 23 4 1 -1.</_>
        <_>
          8 23 2 1 2.</_></rects>
      <tilted>0</tilted></_>
    <_>
      <rects>
        <_>
          7 0 3 4 -1.</_>
        <_>
          7 2 3 2 2.</_></rects>
      <tilted>0</tilted></_>
    <_>
      <rects>
        <_>
          7 0 3 12 -1.</_>
        <_>
          7 6 3 6 2.</_></rects>
      <tilted>0</tilted></_>
    <_>
      <rects>
        <_>
          7 0 17 8 -1.</_>
        <_>
          7 4 17 4 2.</_></rects>
      <tilted>0</tilted></_>
    <_>
      <rects>
        <_>
          7 2 9 6 -1.</_>
        <_>
          7 5 9 3 2.</_></rects>
      <tilted>0</tilted></_>
    <_>
      <rects>
        <_>
          7 8 2 4 -1.</_>
        <_>
          7 8 1 2 2.</_>
        <_>
          8 10 1 2 2.</_></rects>
      <tilted>0</tilted></_>
    <_>
      <rects>
        <_>
          7 9 16 2 -1.</_>
        <_>
          7 10 16 1 2.</_></rects>
      <tilted>0</tilted></_>
    <_>
      <rects>
        <_>
          7 10 8 14 -1.</_>
        <_>
          7 17 8 7 2.</_></rects>
      <tilted>0</tilted></_>
    <_>
      <rects>
        <_>
          7 17 2 4 -1.</_>
        <_>
          7 17 1 2 2.</_>
        <_>
          8 19 1 2 2.</_></rects>
      <tilted>0</tilted></_>
    <_>
      <rects>
        <_>
          7 20 2 1 -1.</_>
        <_>
          8 20 1 1 2.</_></rects>
      <tilted>0</tilted></_>
    <_>
      <rects>
        <_>
          7 22 5 2 -1.</_>
        <_>
          7 23 5 1 2.</_></rects>
      <tilted>0</tilted></_>
    <_>
      <rects>
        <_>
          7 22 7 2 -1.</_>
        <_>
          7 23 7 1 2.</_></rects>
      <tilted>0</tilted></_>
    <_>
      <rects>
        <_>
          8 0 1 4 -1.</_>
        <_>
          8 2 1 2 2.</_></rects>
      <tilted>0</tilted></_>
    <_>
      <rects>
        <_>
          8 0 3 5 -1.</_>
        <_>
          9 0 1 5 2.</_></rects>
      <tilted>0</tilted></_>
    <_>
      <rects>
        <_>
          8 2 16 3 -1.</_>
        <_>
          8 3 16 1 2.</_></rects>
      <tilted>0</tilted></_>
    <_>
      <rects>
        <_>
          8 12 2 6 -1.</_>
        <_>
          8 12 1 3 2.</_>
        <_>
          9 15 1 3 2.</_></rects>
      <tilted>0</tilted></_>
    <_>
      <rects>
        <_>
          8 20 14 4 -1.</_>
        <_>
          8 20 7 2 2.</_>
        <_>
          15 22 7 2 2.</_></rects>
      <tilted>0</tilted></_>
    <_>
      <rects>
        <_>
          8 23 9 1 -1.</_>
        <_>
          11 23 3 1 2.</_></rects>
      <tilted>0</tilted></_>
    <_>
      <rects>
        <_>
          9 0 2 1 -1.</_>
        <_>
          10 0 1 1 2.</_></rects>
      <tilted>0</tilted></_>
    <_>
      <rects>
        <_>
          9 3 2 6 -1.</_>
        <_>
          9 3 1 3 2.</_>
        <_>
          10 6 1 3 2.</_></rects>
      <tilted>0</tilted></_>
    <_>
      <rects>
        <_>
          9 10 2 6 -1.</_>
        <_>
          9 10 1 3 2.</_>
        <_>
          10 13 1 3 2.</_></rects>
      <tilted>0</tilted></_>
    <_>
      <rects>
        <_>
          9 12 2 4 -1.</_>
        <_>
          9 12 1 2 2.</_>
        <_>
          10 14 1 2 2.</_></rects>
      <tilted>0</tilted></_>
    <_>
      <rects>
        <_>
          9 13 6 1 -1.</_>
        <_>
          12 13 3 1 2.</_></rects>
      <tilted>0</tilted></_>
    <_>
      <rects>
        <_>
          9 13 6 2 -1.</_>
        <_>
          9 13 3 1 2.</_>
        <_>
          12 14 3 1 2.</_></rects>
      <tilted>0</tilted></_>
    <_>
      <rects>
        <_>
          9 13 9 2 -1.</_>
        <_>
          9 14 9 1 2.</_></rects>
      <tilted>0</tilted></_>
    <_>
      <rects>
        <_>
          9 19 2 5 -1.</_>
        <_>
          10 19 1 5 2.</_></rects>
      <tilted>0</tilted></_>
    <_>
      <rects>
        <_>
          9 21 2 1 -1.</_>
        <_>
          10 21 1 1 2.</_></rects>
      <tilted>0</tilted></_>
    <_>
      <rects>
        <_>
          9 22 2 2 -1.</_>
        <_>
          9 23 2 1 2.</_></rects>
      <tilted>0</tilted></_>
    <_>
      <rects>
        <_>
          9 22 8 2 -1.</_>
        <_>
          9 23 8 1 2.</_></rects>
      <tilted>0</tilted></_>
    <_>
      <rects>
        <_>
          10 0 10 1 -1.</_>
        <_>
          15 0 5 1 2.</_></rects>
      <tilted>0</tilted></_>
    <_>
      <rects>
        <_>
          10 0 5 2 -1.</_>
        <_>
          10 1 5 1 2.</_></rects>
      <tilted>0</tilted></_>
    <_>
      <rects>
        <_>
          10 0 7 2 -1.</_>
        <_>
          10 1 7 1 2.</_></rects>
      <tilted>0</tilted></_>
    <_>
      <rects>
        <_>
          10 1 2 1 -1.</_>
        <_>
          11 1 1 1 2.</_></rects>
      <tilted>0</tilted></_>
    <_>
      <rects>
        <_>
          10 1 6 1 -1.</_>
        <_>
          13 1 3 1 2.</_></rects>
      <tilted>0</tilted></_>
    <_>
      <rects>
        <_>
          10 2 6 6 -1.</_>
        <_>
          10 5 6 3 2.</_></rects>
      <tilted>0</tilted></_>
    <_>
      <rects>
        <_>
          10 10 8 3 -1.</_>
        <_>
          10 11 8 1 2.</_></rects>
      <tilted>0</tilted></_>
    <_>
      <rects>
        <_>
          10 11 5 2 -1.</_>
        <_>
          10 12 5 1 2.</_></rects>
      <tilted>0</tilted></_>
    <_>
      <rects>
        <_>
          10 12 8 2 -1.</_>
        <_>
          14 12 4 2 2.</_></rects>
      <tilted>0</tilted></_>
    <_>
      <rects>
        <_>
          10 14 6 2 -1.</_>
        <_>
          13 14 3 2 2.</_></rects>
      <tilted>0</tilted></_>
    <_>
      <rects>
        <_>
          10 19 6 4 -1.</_>
        <_>
          10 21 6 2 2.</_></rects>
      <tilted>0</tilted></_>
    <_>
      <rects>
        <_>
          11 0 2 6 -1.</_>
        <_>
          11 3 2 3 2.</_></rects>
      <tilted>0</tilted></_>
    <_>
      <rects>
        <_>
          11 1 6 2 -1.</_>
        <_>
          14 1 3 2 2.</_></rects>
      <tilted>0</tilted></_>
    <_>
      <rects>
        <_>
          11 2 11 6 -1.</_>
        <_>
          11 4 11 2 2.</_></rects>
      <tilted>0</tilted></_>
    <_>
      <rects>
        <_>
          11 3 2 1 -1.</_>
        <_>
          12 3 1 1 2.</_></rects>
      <tilted>0</tilted></_>
    <_>
      <rects>
        <_>
          11 7 5 2 -1.</_>
        <_>
          11 8 5 1 2.</_></rects>
      <tilted>0</tilted></_>
    <_>
      <rects>
        <_>
          11 14 6 1 -1.</_>
        <_>
          14 14 3 1 2.</_></rects>
      <tilted>0</tilted></_>
    <_>
      <rects>
        <_>
          11 18 2 2 -1.</_>
        <_>
          11 18 1 1 2.</_>
        <_>
          12 19 1 1 2.</_></rects>
      <tilted>0</tilted></_>
    <_>
      <rects>
        <_>
          11 22 3 2 -1.</_>
        <_>
          11 23 3 1 2.</_></rects>
      <tilted>0</tilted></_>
    <_>
      <rects>
        <_>
          11 22 4 2 -1.</_>
        <_>
          11 23 4 1 2.</_></rects>
      <tilted>0</tilted></_>
    <_>
      <rects>
        <_>
          12 0 1 6 -1.</_>
        <_>
          12 3 1 3 2.</_></rects>
      <tilted>0</tilted></_>
    <_>
      <rects>
        <_>
          12 0 12 1 -1.</_>
        <_>
          18 0 6 1 2.</_></rects>
      <tilted>0</tilted></_>
    <_>
      <rects>
        <_>
          12 0 7 2 -1.</_>
        <_>
          12 1 7 1 2.</_></rects>
      <tilted>0</tilted></_>
    <_>
      <rects>
        <_>
          12 1 12 3 -1.</_>
        <_>
          16 1 4 3 2.</_></rects>
      <tilted>0</tilted></_>
    <_>
      <rects>
        <_>
          12 1 8 10 -1.</_>
        <_>
          12 1 4 5 2.</_>
        <_>
          16 6 4 5 2.</_></rects>
      <tilted>0</tilted></_>
    <_>
      <rects>
        <_>
          12 4 10 16 -1.</_>
        <_>
          17 4 5 16 2.</_></rects>
      <tilted>0</tilted></_>
    <_>
      <rects>
        <_>
          12 4 12 9 -1.</_>
        <_>
          18 4 6 9 2.</_></rects>
      <tilted>0</tilted></_>
    <_>
      <rects>
        <_>
          12 5 2 7 -1.</_>
        <_>
          13 5 1 7 2.</_></rects>
      <tilted>0</tilted></_>
    <_>
      <rects>
        <_>
          12 8 9 2 -1.</_>
        <_>
          12 9 9 1 2.</_></rects>
      <tilted>0</tilted></_>
    <_>
      <rects>
        <_>
          12 10 12 7 -1.</_>
        <_>
          18 10 6 7 2.</_></rects>
      <tilted>0</tilted></_>
    <_>
      <rects>
        <_>
          12 15 1 2 -1.</_>
        <_>
          12 16 1 1 2.</_></rects>
      <tilted>0</tilted></_>
    <_>
      <rects>
        <_>
          12 15 4 2 -1.</_>
        <_>
          14 15 2 2 2.</_></rects>
      <tilted>0</tilted></_>
    <_>
      <rects>
        <_>
          12 17 6 6 -1.</_>
        <_>
          12 20 6 3 2.</_></rects>
      <tilted>0</tilted></_>
    <_>
      <rects>
        <_>
          12 19 4 4 -1.</_>
        <_>
          12 21 4 2 2.</_></rects>
      <tilted>0</tilted></_>
    <_>
      <rects>
        <_>
          12 23 10 1 -1.</_>
        <_>
          17 23 5 1 2.</_></rects>
      <tilted>0</tilted></_>
    <_>
      <rects>
        <_>
          13 0 8 4 -1.</_>
        <_>
          13 2 8 2 2.</_></rects>
      <tilted>0</tilted></_>
    <_>
      <rects>
        <_>
          13 4 2 8 -1.</_>
        <_>
          13 4 1 4 2.</_>
        <_>
          14 8 1 4 2.</_></rects>
      <tilted>0</tilted></_>
    <_>
      <rects>
        <_>
          13 6 4 18 -1.</_>
        <_>
          13 12 4 6 2.</_></rects>
      <tilted>0</tilted></_>
    <_>
      <rects>
        <_>
          13 7 10 4 -1.</_>
        <_>
          13 7 5 2 2.</_>
        <_>
          18 9 5 2 2.</_></rects>
      <tilted>0</tilted></_>
    <_>
      <rects>
        <_>
          13 14 2 1 -1.</_>
        <_>
          14 14 1 1 2.</_></rects>
      <tilted>0</tilted></_>
    <_>
      <rects>
        <_>
          13 18 1 6 -1.</_>
        <_>
          13 21 1 3 2.</_></rects>
      <tilted>0</tilted></_>
    <_>
      <rects>
        <_>
          13 22 1 2 -1.</_>
        <_>
          13 23 1 1 2.</_></rects>
      <tilted>0</tilted></_>
    <_>
      <rects>
        <_>
          14 0 10 1 -1.</_>
        <_>
          19 0 5 1 2.</_></rects>
      <tilted>0</tilted></_>
    <_>
      <rects>
        <_>
          14 3 6 10 -1.</_>
        <_>
          14 3 3 5 2.</_>
        <_>
          17 8 3 5 2.</_></rects>
      <tilted>0</tilted></_>
    <_>
      <rects>
        <_>
          14 3 10 13 -1.</_>
        <_>
          19 3 5 13 2.</_></rects>
      <tilted>0</tilted></_>
    <_>
      <rects>
        <_>
          14 5 10 9 -1.</_>
        <_>
          19 5 5 9 2.</_></rects>
      <tilted>0</tilted></_>
    <_>
      <rects>
        <_>
          14 7 10 7 -1.</_>
        <_>
          19 7 5 7 2.</_></rects>
      <tilted>0</tilted></_>
    <_>
      <rects>
        <_>
          14 11 10 5 -1.</_>
        <_>
          19 11 5 5 2.</_></rects>
      <tilted>0</tilted></_>
    <_>
      <rects>
        <_>
          14 12 2 2 -1.</_>
        <_>
          14 13 2 1 2.</_></rects>
      <tilted>0</tilted></_>
    <_>
      <rects>
        <_>
          14 13 2 2 -1.</_>
        <_>
          14 13 1 1 2.</_>
        <_>
          15 14 1 1 2.</_></rects>
      <tilted>0</tilted></_>
    <_>
      <rects>
        <_>
          15 0 2 7 -1.</_>
        <_>
          16 0 1 7 2.</_></rects>
      <tilted>0</tilted></_>
    <_>
      <rects>
        <_>
          15 0 2 8 -1.</_>
        <_>
          16 0 1 8 2.</_></rects>
      <tilted>0</tilted></_>
    <_>
      <rects>
        <_>
          15 0 4 6 -1.</_>
        <_>
          17 0 2 6 2.</_></rects>
      <tilted>0</tilted></_>
    <_>
      <rects>
        <_>
          15 0 6 1 -1.</_>
        <_>
          18 0 3 1 2.</_></rects>
      <tilted>0</tilted></_>
    <_>
      <rects>
        <_>
          15 1 8 13 -1.</_>
        <_>
          19 1 4 13 2.</_></rects>
      <tilted>0</tilted></_>
    <_>
      <rects>
        <_>
          15 7 4 2 -1.</_>
        <_>
          15 7 2 1 2.</_>
        <_>
          17 8 2 1 2.</_></rects>
      <tilted>0</tilted></_>
    <_>
      <rects>
        <_>
          15 7 8 7 -1.</_>
        <_>
          19 7 4 7 2.</_></rects>
      <tilted>0</tilted></_>
    <_>
      <rects>
        <_>
          15 10 2 2 -1.</_>
        <_>
          16 10 1 2 2.</_></rects>
      <tilted>0</tilted></_>
    <_>
      <rects>
        <_>
          16 0 4 1 -1.</_>
        <_>
          18 0 2 1 2.</_></rects>
      <tilted>0</tilted></_>
    <_>
      <rects>
        <_>
          16 0 8 6 -1.</_>
        <_>
          16 0 4 3 2.</_>
        <_>
          20 3 4 3 2.</_></rects>
      <tilted>0</tilted></_>
    <_>
      <rects>
        <_>
          16 1 4 3 -1.</_>
        <_>
          18 1 2 3 2.</_></rects>
      <tilted>0</tilted></_>
    <_>
      <rects>
        <_>
          16 4 8 4 -1.</_>
        <_>
          20 4 4 4 2.</_></rects>
      <tilted>0</tilted></_>
    <_>
      <rects>
        <_>
          16 6 8 14 -1.</_>
        <_>
          16 6 4 7 2.</_>
        <_>
          20 13 4 7 2.</_></rects>
      <tilted>0</tilted></_>
    <_>
      <rects>
        <_>
          16 9 6 4 -1.</_>
        <_>
          19 9 3 4 2.</_></rects>
      <tilted>0</tilted></_>
    <_>
      <rects>
        <_>
          16 9 8 13 -1.</_>
        <_>
          20 9 4 13 2.</_></rects>
      <tilted>0</tilted></_>
    <_>
      <rects>
        <_>
          16 16 4 1 -1.</_>
        <_>
          18 16 2 1 2.</_></rects>
      <tilted>0</tilted></_>
    <_>
      <rects>
        <_>
          16 17 4 7 -1.</_>
        <_>
          18 17 2 7 2.</_></rects>
      <tilted>0</tilted></_>
    <_>
      <rects>
        <_>
          16 20 3 3 -1.</_>
        <_>
          16 21 3 1 2.</_></rects>
      <tilted>0</tilted></_>
    <_>
      <rects>
        <_>
          16 21 8 2 -1.</_>
        <_>
          16 21 4 1 2.</_>
        <_>
          20 22 4 1 2.</_></rects>
      <tilted>0</tilted></_>
    <_>
      <rects>
        <_>
          17 1 4 18 -1.</_>
        <_>
          17 7 4 6 2.</_></rects>
      <tilted>0</tilted></_>
    <_>
      <rects>
        <_>
          17 4 6 1 -1.</_>
        <_>
          20 4 3 1 2.</_></rects>
      <tilted>0</tilted></_>
    <_>
      <rects>
        <_>
          17 6 6 2 -1.</_>
        <_>
          20 6 3 2 2.</_></rects>
      <tilted>0</tilted></_>
    <_>
      <rects>
        <_>
          17 9 6 2 -1.</_>
        <_>
          20 9 3 2 2.</_></rects>
      <tilted>0</tilted></_>
    <_>
      <rects>
        <_>
          17 11 2 2 -1.</_>
        <_>
          17 11 1 1 2.</_>
        <_>
          18 12 1 1 2.</_></rects>
      <tilted>0</tilted></_>
    <_>
      <rects>
        <_>
          17 12 6 2 -1.</_>
        <_>
          17 12 3 1 2.</_>
        <_>
          20 13 3 1 2.</_></rects>
      <tilted>0</tilted></_>
    <_>
      <rects>
        <_>
          17 22 2 2 -1.</_>
        <_>
          18 22 1 2 2.</_></rects>
      <tilted>0</tilted></_>
    <_>
      <rects>
        <_>
          18 0 4 1 -1.</_>
        <_>
          20 0 2 1 2.</_></rects>
      <tilted>0</tilted></_>
    <_>
      <rects>
        <_>
          18 1 6 12 -1.</_>
        <_>
          18 7 6 6 2.</_></rects>
      <tilted>0</tilted></_>
    <_>
      <rects>
        <_>
          18 4 6 17 -1.</_>
        <_>
          21 4 3 17 2.</_></rects>
      <tilted>0</tilted></_>
    <_>
      <rects>
        <_>
          18 4 6 18 -1.</_>
        <_>
          21 4 3 18 2.</_></rects>
      <tilted>0</tilted></_>
    <_>
      <rects>
        <_>
          18 6 4 10 -1.</_>
        <_>
          20 6 2 10 2.</_></rects>
      <tilted>0</tilted></_>
    <_>
      <rects>
        <_>
          18 6 6 14 -1.</_>
        <_>
          21 6 3 14 2.</_></rects>
      <tilted>0</tilted></_>
    <_>
      <rects>
        <_>
          18 9 6 8 -1.</_>
        <_>
          18 9 3 4 2.</_>
        <_>
          21 13 3 4 2.</_></rects>
      <tilted>0</tilted></_>
    <_>
      <rects>
        <_>
          18 12 2 2 -1.</_>
        <_>
          18 12 1 1 2.</_>
        <_>
          19 13 1 1 2.</_></rects>
      <tilted>0</tilted></_>
    <_>
      <rects>
        <_>
          18 12 4 2 -1.</_>
        <_>
          18 12 2 1 2.</_>
        <_>
          20 13 2 1 2.</_></rects>
      <tilted>0</tilted></_>
    <_>
      <rects>
        <_>
          18 22 6 2 -1.</_>
        <_>
          18 23 6 1 2.</_></rects>
      <tilted>0</tilted></_>
    <_>
      <rects>
        <_>
          19 0 4 18 -1.</_>
        <_>
          19 0 2 9 2.</_>
        <_>
          21 9 2 9 2.</_></rects>
      <tilted>0</tilted></_>
    <_>
      <rects>
        <_>
          19 1 2 4 -1.</_>
        <_>
          20 1 1 4 2.</_></rects>
      <tilted>0</tilted></_>
    <_>
      <rects>
        <_>
          19 4 4 5 -1.</_>
        <_>
          21 4 2 5 2.</_></rects>
      <tilted>0</tilted></_>
    <_>
      <rects>
        <_>
          19 8 2 6 -1.</_>
        <_>
          19 8 1 3 2.</_>
        <_>
          20 11 1 3 2.</_></rects>
      <tilted>0</tilted></_>
    <_>
      <rects>
        <_>
          19 10 2 2 -1.</_>
        <_>
          19 10 1 1 2.</_>
        <_>
          20 11 1 1 2.</_></rects>
      <tilted>0</tilted></_>
    <_>
      <rects>
        <_>
          19 10 4 4 -1.</_>
        <_>
          21 10 2 4 2.</_></rects>
      <tilted>0</tilted></_>
    <_>
