<?xml version="1.0"?>
<opencv_storage>
<stage5>
  <maxWeakCount>6</maxWeakCount>
  <stageThreshold>-8.9427012205123901e-01</stageThreshold>
  <weakClassifiers>
    <_>
      <internalNodes>
        0 -1 42042 5.5495798587799072e-03</internalNodes>
      <leafValues>
        -5.2542370557785034e-01 4.8275861144065857e-01</leafValues></_>
    <_>
      <internalNodes>
        0 -1 16074 2.1100534498691559e-01</internalNodes>
      <leafValues>
        2.1082413196563721e-01 -8.3580207824707031e-01</leafValues></_>
    <_>
      <internalNodes>
        0 -1 122133 -6.8002291023731232e-02</internalNodes>
      <leafValues>
        -5.0156307220458984e-01 3.5808485746383667e-01</leafValues></_>
    <_>
      <internalNodes>
        0 -1 89830 -2.2041588090360165e-03</internalNodes>
      <leafValues>
        6.7026573419570923e-01 -2.4296025931835175e-01</leafValues></_>
    <_>
      <internalNodes>
        0 -1 114154 -5.1718568429350853e-03</internalNodes>
      <leafValues>
        6.5622508525848389e-01 -3.0344054102897644e-01</leafValues></_>
    <_>
      <internalNodes>
        0 -1 63598 -1.8234823364764452e-03</internalNodes>
      <leafValues>
        6.9013631343841553e-01 -2.5795432925224304e-01</leafValues></_></weakClassifiers></stage5>
</opencv_storage>
