<?xml version="1.0"?>
<opencv_storage>
<stage2>
  <maxWeakCount>5</maxWeakCount>
  <stageThreshold>-8.5499709844589233e-01</stageThreshold>
  <weakClassifiers>
    <_>
      <internalNodes>
        0 -1 45109 -1.8668049573898315e-01</internalNodes>
      <leafValues>
        -6.2691134214401245e-01 5.2447551488876343e-01</leafValues></_>
    <_>
      <internalNodes>
        0 -1 4272 -3.4438308328390121e-02</internalNodes>
      <leafValues>
        6.7319405078887939e-01 -3.6033880710601807e-01</leafValues></_>
    <_>
      <internalNodes>
        0 -1 17363 3.2385114580392838e-02</internalNodes>
      <leafValues>
        -3.1111344695091248e-01 8.3689570426940918e-01</leafValues></_>
    <_>
      <internalNodes>
        0 -1 17353 -3.6547169089317322e-02</internalNodes>
      <leafValues>
        7.1760034561157227e-01 -1.8364393711090088e-01</leafValues></_>
    <_>
      <internalNodes>
        0 -1 153444 -1.6211804002523422e-02</internalNodes>
      <leafValues>
        7.0921701192855835e-01 -2.7423387765884399e-01</leafValues></_></weakClassifiers></stage2>
</opencv_storage>
