<?xml version="1.0"?>
<opencv_storage>
<stage14>
  <maxWeakCount>11</maxWeakCount>
  <stageThreshold>-8.7658393383026123e-01</stageThreshold>
  <weakClassifiers>
    <_>
      <internalNodes>
        0 -1 639 -9.3913149833679199e-01</internalNodes>
      <leafValues>
        2.3943662643432617e-01 -5.0000000000000000e-01</leafValues></_>
    <_>
      <internalNodes>
        0 -1 13372 -2.3023990797810256e-04</internalNodes>
      <leafValues>
        -7.0429956912994385e-01 1.4085946977138519e-01</leafValues></_>
    <_>
      <internalNodes>
        0 -1 105309 2.3265188792720437e-04</internalNodes>
      <leafValues>
        2.2783258557319641e-01 -4.4493675231933594e-01</leafValues></_>
    <_>
      <internalNodes>
        0 -1 13392 -1.5219522174447775e-04</internalNodes>
      <leafValues>
        -5.2812695503234863e-01 2.0725166797637939e-01</leafValues></_>
    <_>
      <internalNodes>
        0 -1 127797 -4.5064031146466732e-03</internalNodes>
      <leafValues>
        4.6254354715347290e-01 -2.5016129016876221e-01</leafValues></_>
    <_>
      <internalNodes>
        0 -1 107428 1.6602713731117547e-04</internalNodes>
      <leafValues>
        1.9710692763328552e-01 -6.2745982408523560e-01</leafValues></_>
    <_>
      <internalNodes>
        0 -1 112615 2.8862664476037025e-03</internalNodes>
      <leafValues>
        2.0937830209732056e-01 -5.7877677679061890e-01</leafValues></_>
    <_>
      <internalNodes>
        0 -1 89560 -2.2734493541065603e-04</internalNodes>
      <leafValues>
        -6.5570867061614990e-01 1.8021494150161743e-01</leafValues></_>
    <_>
      <internalNodes>
        0 -1 25993 1.5411702916026115e-02</internalNodes>
      <leafValues>
        -2.4324199557304382e-01 5.5016577243804932e-01</leafValues></_>
    <_>
      <internalNodes>
        0 -1 3459 -6.7133650183677673e-02</internalNodes>
      <leafValues>
        5.1407784223556519e-01 -3.5041794180870056e-01</leafValues></_>
    <_>
      <internalNodes>
        0 -1 115983 -5.7108249515295029e-02</internalNodes>
      <leafValues>
        2.6622402667999268e-01 -5.8354467153549194e-01</leafValues></_></weakClassifiers></stage14>
</opencv_storage>
