<?xml version="1.0"?>
<opencv_storage>
<stage29>
  <maxWeakCount>13</maxWeakCount>
  <stageThreshold>-7.7686774730682373e-01</stageThreshold>
  <weakClassifiers>
    <_>
      <internalNodes>
        0 -1 148259 6.4247809350490570e-03</internalNodes>
      <leafValues>
        -3.5185185074806213e-01 5.7894736528396606e-01</leafValues></_>
    <_>
      <internalNodes>
        0 -1 49298 2.0022969692945480e-03</internalNodes>
      <leafValues>
        5.0630290061235428e-02 -8.2201457023620605e-01</leafValues></_>
    <_>
      <internalNodes>
        0 -1 147974 2.1487593650817871e-02</internalNodes>
      <leafValues>
        1.3218495249748230e-01 -1.</leafValues></_>
    <_>
      <internalNodes>
        0 -1 5952 -3.5561341792345047e-03</internalNodes>
      <leafValues>
        3.5678631067276001e-01 -2.4400697648525238e-01</leafValues></_>
    <_>
      <internalNodes>
        0 -1 50242 3.0404770746827126e-02</internalNodes>
      <leafValues>
        -1.1934015154838562e-01 6.0039287805557251e-01</leafValues></_>
    <_>
      <internalNodes>
        0 -1 26807 1.5557789802551270e-01</internalNodes>
      <leafValues>
        1.4733056724071503e-01 -5.2505737543106079e-01</leafValues></_>
    <_>
      <internalNodes>
        0 -1 37955 5.4032457992434502e-03</internalNodes>
      <leafValues>
        -2.5921019911766052e-01 2.8986135125160217e-01</leafValues></_>
    <_>
      <internalNodes>
        0 -1 154430 -1.2420872226357460e-03</internalNodes>
      <leafValues>
        5.3601837158203125e-01 -1.3806454837322235e-01</leafValues></_>
    <_>
      <internalNodes>
        0 -1 25717 6.5267732134088874e-04</internalNodes>
      <leafValues>
        1.3636454939842224e-01 -6.2099498510360718e-01</leafValues></_>
    <_>
      <internalNodes>
        0 -1 34473 1.0886006988584995e-02</internalNodes>
      <leafValues>
        -1.7333835363388062e-01 5.2933293581008911e-01</leafValues></_>
    <_>
      <internalNodes>
        0 -1 142399 3.1511776614934206e-04</internalNodes>
      <leafValues>
        1.5200090408325195e-01 -5.2878463268280029e-01</leafValues></_>
    <_>
      <internalNodes>
        0 -1 17421 -2.3316375911235809e-02</internalNodes>
      <leafValues>
        3.2603764533996582e-01 -2.8443655371665955e-01</leafValues></_>
    <_>
      <internalNodes>
        0 -1 70401 -4.9433414824306965e-04</internalNodes>
      <leafValues>
        2.7966129779815674e-01 -2.9420965909957886e-01</leafValues></_></weakClassifiers></stage29>
</opencv_storage>
