<?xml version="1.0"?>
<opencv_storage>
<stage11>
  <maxWeakCount>12</maxWeakCount>
  <stageThreshold>-8.8455992937088013e-01</stageThreshold>
  <weakClassifiers>
    <_>
      <internalNodes>
        0 -1 10323 -5.0508719682693481e-01</internalNodes>
      <leafValues>
        6.9642859697341919e-01 -2.6778241991996765e-01</leafValues></_>
    <_>
      <internalNodes>
        0 -1 71482 -2.7358019351959229e-01</internalNodes>
      <leafValues>
        6.9654691219329834e-01 -1.8669758737087250e-01</leafValues></_>
    <_>
      <internalNodes>
        0 -1 157570 -7.8542344272136688e-04</internalNodes>
      <leafValues>
        -4.9892073869705200e-01 2.1797519922256470e-01</leafValues></_>
    <_>
      <internalNodes>
        0 -1 59334 -8.3851106464862823e-03</internalNodes>
      <leafValues>
        -9.0708506107330322e-01 9.2431984841823578e-02</leafValues></_>
    <_>
      <internalNodes>
        0 -1 128040 -8.3354098023846745e-04</internalNodes>
      <leafValues>
        -7.2014528512954712e-01 1.3096961379051208e-01</leafValues></_>
    <_>
      <internalNodes>
        0 -1 37409 -1.5408605337142944e-01</internalNodes>
      <leafValues>
        5.9156721830368042e-01 -1.7582285404205322e-01</leafValues></_>
    <_>
      <internalNodes>
        0 -1 70822 -1.8068533390760422e-02</internalNodes>
      <leafValues>
        4.7258144617080688e-01 -2.5482755899429321e-01</leafValues></_>
    <_>
      <internalNodes>
        0 -1 109363 3.1176684424281120e-02</internalNodes>
      <leafValues>
        -1.4052733778953552e-01 5.7080227136611938e-01</leafValues></_>
    <_>
      <internalNodes>
        0 -1 107764 -5.2492465823888779e-02</internalNodes>
      <leafValues>
        7.2745674848556519e-01 -1.4611394703388214e-01</leafValues></_>
    <_>
      <internalNodes>
        0 -1 3316 -2.4676391854882240e-02</internalNodes>
      <leafValues>
        5.7205528020858765e-01 -1.8353913724422455e-01</leafValues></_>
    <_>
      <internalNodes>
        0 -1 155227 -3.3425289439037442e-04</internalNodes>
      <leafValues>
        -5.3657418489456177e-01 2.3901215195655823e-01</leafValues></_>
    <_>
      <internalNodes>
        0 -1 99475 -1.0016274172812700e-03</internalNodes>
      <leafValues>
        3.7689980864524841e-01 -3.0205607414245605e-01</leafValues></_></weakClassifiers></stage11>
</opencv_storage>
