<?xml version="1.0"?>
<opencv_storage>
<stage9>
  <maxWeakCount>9</maxWeakCount>
  <stageThreshold>-1.3287652730941772e+00</stageThreshold>
  <weakClassifiers>
    <_>
      <internalNodes>
        0 -1 29476 -6.0714328289031982e-01</internalNodes>
      <leafValues>
        6.1165046691894531e-01 -4.5833334326744080e-01</leafValues></_>
    <_>
      <internalNodes>
        0 -1 51217 -2.9506474733352661e-01</internalNodes>
      <leafValues>
        8.1557273864746094e-01 -1.9627447426319122e-01</leafValues></_>
    <_>
      <internalNodes>
        0 -1 10837 -4.2414933443069458e-01</internalNodes>
      <leafValues>
        6.3134181499481201e-01 -3.1194099783897400e-01</leafValues></_>
    <_>
      <internalNodes>
        0 -1 36265 2.3657553829252720e-03</internalNodes>
      <leafValues>
        2.4841952323913574e-01 -7.9933893680572510e-01</leafValues></_>
    <_>
      <internalNodes>
        0 -1 12237 7.6622655615210533e-04</internalNodes>
      <leafValues>
        2.7838683128356934e-01 -5.7075762748718262e-01</leafValues></_>
    <_>
      <internalNodes>
        0 -1 26228 4.1365146636962891e-02</internalNodes>
      <leafValues>
        -2.7362871170043945e-01 6.9111245870590210e-01</leafValues></_>
    <_>
      <internalNodes>
        0 -1 117845 1.3697247207164764e-01</internalNodes>
      <leafValues>
        -1.4934344589710236e-01 8.7979722023010254e-01</leafValues></_>
    <_>
      <internalNodes>
        0 -1 147824 6.9402228109538555e-04</internalNodes>
      <leafValues>
        2.1744546294212341e-01 -7.2145020961761475e-01</leafValues></_>
    <_>
      <internalNodes>
        0 -1 143830 1.0601928224787116e-03</internalNodes>
      <leafValues>
        1.6564834117889404e-01 -8.3753895759582520e-01</leafValues></_></weakClassifiers></stage9>
</opencv_storage>
