<?xml version="1.0"?>
<opencv_storage>
<stage19>
  <maxWeakCount>17</maxWeakCount>
  <stageThreshold>-8.5898673534393311e-01</stageThreshold>
  <weakClassifiers>
    <_>
      <internalNodes>
        0 -1 120514 -1.0835267603397369e-03</internalNodes>
      <leafValues>
        -4.5549738407135010e-01 9.2731826007366180e-02</leafValues></_>
    <_>
      <internalNodes>
        0 -1 161166 3.8885622052475810e-04</internalNodes>
      <leafValues>
        1.6791218519210815e-01 -3.9673271775245667e-01</leafValues></_>
    <_>
      <internalNodes>
        0 -1 161153 -5.3387950174510479e-04</internalNodes>
      <leafValues>
        -3.9877119660377502e-01 2.1516659855842590e-01</leafValues></_>
    <_>
      <internalNodes>
        0 -1 13260 1.0098798200488091e-02</internalNodes>
      <leafValues>
        8.3166517317295074e-02 -5.2233004570007324e-01</leafValues></_>
    <_>
      <internalNodes>
        0 -1 37376 -3.9443023502826691e-02</internalNodes>
      <leafValues>
        -4.0941074490547180e-01 1.8848690390586853e-01</leafValues></_>
    <_>
      <internalNodes>
        0 -1 44645 -8.1822335720062256e-02</internalNodes>
      <leafValues>
        -1.0390838980674744e-01 6.7745244503021240e-01</leafValues></_>
    <_>
      <internalNodes>
        0 -1 43916 -6.2325123697519302e-02</internalNodes>
      <leafValues>
        4.6466165781021118e-01 -1.4310055971145630e-01</leafValues></_>
    <_>
      <internalNodes>
        0 -1 150805 -4.2608804069459438e-03</internalNodes>
      <leafValues>
        -5.4842954874038696e-01 1.0826478153467178e-01</leafValues></_>
    <_>
      <internalNodes>
        0 -1 121179 -8.8937506079673767e-03</internalNodes>
      <leafValues>
        4.5460045337677002e-01 -1.6842687129974365e-01</leafValues></_>
    <_>
      <internalNodes>
        0 -1 112811 -1.3307867571711540e-02</internalNodes>
      <leafValues>
        8.0856388807296753e-01 -4.7587111592292786e-02</leafValues></_>
    <_>
      <internalNodes>
        0 -1 97999 -2.0363735966384411e-03</internalNodes>
      <leafValues>
        -4.7163844108581543e-01 1.2856176495552063e-01</leafValues></_>
    <_>
      <internalNodes>
        0 -1 37980 6.5580609953030944e-04</internalNodes>
      <leafValues>
        1.1297392100095749e-01 -6.2621963024139404e-01</leafValues></_>
    <_>
      <internalNodes>
        0 -1 127910 6.2832622788846493e-03</internalNodes>
      <leafValues>
        -1.8407359719276428e-01 3.8478466868400574e-01</leafValues></_>
    <_>
      <internalNodes>
        0 -1 144252 1.7630051588639617e-03</internalNodes>
      <leafValues>
        1.8808719515800476e-01 -3.6638128757476807e-01</leafValues></_>
    <_>
      <internalNodes>
        0 -1 154466 5.4814117029309273e-03</internalNodes>
      <leafValues>
        -1.5158939361572266e-01 4.9198624491691589e-01</leafValues></_>
    <_>
      <internalNodes>
        0 -1 153689 -4.4948752969503403e-02</internalNodes>
      <leafValues>
        9.5802354812622070e-01 -5.3432080894708633e-02</leafValues></_>
    <_>
      <internalNodes>
        0 -1 142839 -4.3515791185200214e-04</internalNodes>
      <leafValues>
        -3.5521060228347778e-01 2.0429396629333496e-01</leafValues></_></weakClassifiers></stage19>
</opencv_storage>
