<?xml version="1.0"?>
<opencv_storage>
<stage10>
  <maxWeakCount>9</maxWeakCount>
  <stageThreshold>-8.7029802799224854e-01</stageThreshold>
  <weakClassifiers>
    <_>
      <internalNodes>
        0 -1 11715 -3.8858917355537415e-01</internalNodes>
      <leafValues>
        7.0731705427169800e-01 -3.8967135548591614e-01</leafValues></_>
    <_>
      <internalNodes>
        0 -1 26705 -1.9773033261299133e-01</internalNodes>
      <leafValues>
        6.9479274749755859e-01 -2.8311693668365479e-01</leafValues></_>
    <_>
      <internalNodes>
        0 -1 105975 -8.2307137548923492e-02</internalNodes>
      <leafValues>
        6.7149174213409424e-01 -2.0902121067047119e-01</leafValues></_>
    <_>
      <internalNodes>
        0 -1 114439 -1.0757876560091972e-02</internalNodes>
      <leafValues>
        1.6507206857204437e-01 -8.7654811143875122e-01</leafValues></_>
    <_>
      <internalNodes>
        0 -1 98732 1.4733017887920141e-03</internalNodes>
      <leafValues>
        1.8281742930412292e-01 -7.5396895408630371e-01</leafValues></_>
    <_>
      <internalNodes>
        0 -1 140589 -2.3974962532520294e-02</internalNodes>
      <leafValues>
        6.6693967580795288e-01 -1.9103884696960449e-01</leafValues></_>
    <_>
      <internalNodes>
        0 -1 73638 -1.5430095791816711e-01</internalNodes>
      <leafValues>
        6.6050928831100464e-01 -1.8852077424526215e-01</leafValues></_>
    <_>
      <internalNodes>
        0 -1 75665 1.3708150386810303e-01</internalNodes>
      <leafValues>
        -1.6462005674839020e-01 7.1297174692153931e-01</leafValues></_>
    <_>
      <internalNodes>
        0 -1 149395 -1.4339874032884836e-03</internalNodes>
      <leafValues>
        2.0780168473720551e-01 -7.2892504930496216e-01</leafValues></_></weakClassifiers></stage10>
</opencv_storage>
