<?xml version="1.0"?>
<opencv_storage>
<stage18>
  <maxWeakCount>14</maxWeakCount>
  <stageThreshold>-9.2709338665008545e-01</stageThreshold>
  <weakClassifiers>
    <_>
      <internalNodes>
        0 -1 68835 -2.8066188097000122e-02</internalNodes>
      <leafValues>
        -2.9095354676246643e-01 3.8121548295021057e-01</leafValues></_>
    <_>
      <internalNodes>
        0 -1 159512 1.7852708697319031e-03</internalNodes>
      <leafValues>
        1.9651637971401215e-01 -4.7753116488456726e-01</leafValues></_>
    <_>
      <internalNodes>
        0 -1 13407 1.6040620394051075e-03</internalNodes>
      <leafValues>
        1.2911137938499451e-01 -5.4415524005889893e-01</leafValues></_>
    <_>
      <internalNodes>
        0 -1 131205 -6.8596226628869772e-04</internalNodes>
      <leafValues>
        -4.5112630724906921e-01 1.5424367785453796e-01</leafValues></_>
    <_>
      <internalNodes>
        0 -1 108240 1.0814758017659187e-02</internalNodes>
      <leafValues>
        -1.6073960065841675e-01 4.3941214680671692e-01</leafValues></_>
    <_>
      <internalNodes>
        0 -1 1465 -7.3710784316062927e-02</internalNodes>
      <leafValues>
        3.9549863338470459e-01 -2.3645162582397461e-01</leafValues></_>
    <_>
      <internalNodes>
        0 -1 107046 8.8429851457476616e-03</internalNodes>
      <leafValues>
        -1.7321777343750000e-01 5.5063837766647339e-01</leafValues></_>
    <_>
      <internalNodes>
        0 -1 162006 7.2521343827247620e-04</internalNodes>
      <leafValues>
        2.3686629533767700e-01 -3.5134509205818176e-01</leafValues></_>
    <_>
      <internalNodes>
        0 -1 25776 -2.9382468201220036e-03</internalNodes>
      <leafValues>
        4.6255469322204590e-01 -1.7915467917919159e-01</leafValues></_>
    <_>
      <internalNodes>
        0 -1 13362 2.5068009272217751e-03</internalNodes>
      <leafValues>
        -2.7396285533905029e-01 4.1015747189521790e-01</leafValues></_>
    <_>
      <internalNodes>
        0 -1 84380 -1.7381851375102997e-01</internalNodes>
      <leafValues>
        -1.7991155385971069e-01 6.0773092508316040e-01</leafValues></_>
    <_>
      <internalNodes>
        0 -1 50380 1.1114203371107578e-03</internalNodes>
      <leafValues>
        1.8392717838287354e-01 -7.2482579946517944e-01</leafValues></_>
    <_>
      <internalNodes>
        0 -1 43608 -7.7642123214900494e-03</internalNodes>
      <leafValues>
        3.9461725950241089e-01 -2.0270645618438721e-01</leafValues></_>
    <_>
      <internalNodes>
        0 -1 89065 -9.6567757427692413e-03</internalNodes>
      <leafValues>
        3.9648386836051941e-01 -1.6699959337711334e-01</leafValues></_></weakClassifiers></stage18>
</opencv_storage>
